{"learner":{"attributes":{"scikit_learn":"{\"_estimator_type\": \"classifier\"}"},"feature_names":["age","gender","chestpain","restingBP","serumcholestrol","fastingbloodsugar","restingrelectro","maxheartrate","exerciseangia","oldpeak","slope","noofmajorvessels"],"feature_types":["float","float","float","float","float","float","float","float","float","float","float","float"],"gradient_booster":{"model":{"gbtree_model_param":{"num_parallel_tree":"1","num_trees":"100"},"iteration_indptr":[0,1,2,3,4,5,6,7,8,9,10,11,12,13,14,15,16,17,18,19,20,21,22,23,24,25,26,27,28,29,30,31,32,33,34,35,36,37,38,39,40,41,42,43,44,45,46,47,48,49,50,51,52,53,54,55,56,57,58,59,60,61,62,63,64,65,66,67,68,69,70,71,72,73,74,75,76,77,78,79,80,81,82,83,84,85,86,87,88,89,90,91,92,93,94,95,96,97,98,99,100],"tree_info":[0,0,0,0,0,0,0,0,0,0,0,0,0,0,0,0,0,0,0,0,0,0,0,0,0,0,0,0,0,0,0,0,0,0,0,0,0,0,0,0,0,0,0,0,0,0,0,0,0,0,0,0,0,0,0,0,0,0,0,0,0,0,0,0,0,0,0,0,0,0,0,0,0,0,0,0,0,0,0,0,0,0,0,0,0,0,0,0,0,0,0,0,0,0,0,0,0,0,0,0],"trees":[{"base_weights":[2.7335161E-2,-1.6005684E0,1.6732475E0,-1.9422288E0,4.4720974E-2,7.2015893E-1,8.801854E-2,-2.119733E0,-1.0996612E0,-7.091693E-2,4.159469E-1,-3.94918E-2,5.8351737E-2,-3.4289505E-2,-1.0809745E-1,-7.6896496E-2,1.230067E-2,4.399376E-2,-4.6188403E-2],"categories":[],"categories_nodes":[],"categories_segments":[],"categories_sizes":[],"default_left":[0,0,0,0,0,0,0,0,0,0,0,0,0,0,0,0,0,0,0],"id":0,"left_children":[1,3,5,7,9,11,-1,13,15,-1,17,-1,-1,-1,-1,-1,-1,-1,-1],"loss_changes":[3.5304703E2,3.7329712E1,4.1720886E0,5.877304E0,7.3083367E0,5.766194E0,0E0,1.1963196E0,7.2363605E0,0E0,7.4256835E0,0E0,0E0,0E0,0E0,0E0,0E0,0E0,0E0],"parents":[2147483647,0,0,1,1,2,2,3,3,4,4,5,5,7,7,8,8,10,10],"right_children":[2,4,6,8,10,12,-1,14,16,-1,18,-1,-1,-1,-1,-1,-1,-1,-1],"split_conditions":[5.002754E-1,1.0723515E0,-2.0605664E-1,8.1877536E-1,-1.1271923E0,-1.02454E0,8.801854E-2,-1.5832934E0,2.8862461E-2,-7.091693E-2,-2.3419708E-1,-3.94918E-2,5.8351737E-2,-3.4289505E-2,-1.0809745E-1,-7.6896496E-2,1.230067E-2,4.399376E-2,-4.6188403E-2],"split_indices":[10,2,11,11,7,0,0,0,2,0,9,0,0,0,0,0,0,0,0],"split_type":[0,0,0,0,0,0,0,0,0,0,0,0,0,0,0,0,0,0,0],"sum_hessian":[1.297646E2,6.525306E1,6.451154E1,5.3883205E1,1.1369851E1,6.179267E0,5.833228E1,4.3254868E1,1.0628339E1,1.7301947E0,9.639656E0,1.2358533E0,4.9434133E0,1.7301947E0,4.1524673E1,7.9094615E0,2.7188773E0,7.41512E0,2.224536E0],"tree_param":{"num_deleted":"0","num_feature":"12","num_nodes":"19","size_leaf_vector":"1"}},{"base_weights":[-4.2351216E-2,-1.2933732E0,9.2493224E-1,-9.650864E-2,3.593562E-1,-7.143945E-1,1.374888E0,9.081634E-1,-7.958582E-2,-1.4760349E0,5.3696895E-1,1.9986959E-1,1.4572575E0,-1.29192965E-2,6.486464E-2,-8.504656E-2,5.50012E-3,-1.2976214E-2,5.580887E-2,-6.5694556E-2,6.1725896E-2,7.5768374E-2,2.3571003E-2],"categories":[],"categories_nodes":[],"categories_segments":[],"categories_sizes":[],"default_left":[0,0,0,0,0,0,0,0,0,0,0,0,0,0,0,0,0,0,0,0,0,0,0],"id":1,"left_children":[1,3,5,-1,7,9,11,13,-1,15,17,19,21,-1,-1,-1,-1,-1,-1,-1,-1,-1,-1],"loss_changes":[1.5643398E2,6.0005333E1,5.477738E1,0E0,1.9131866E1,1.6389517E1,5.280281E0,6.476121E0,0E0,3.9108639E0,3.4844084E0,9.3434305E0,2.3582535E0,0E0,0E0,0E0,0E0,0E0,0E0,0E0,0E0,0E0,0E0],"parents":[2147483647,0,0,1,1,2,2,4,4,5,5,6,6,7,7,9,9,10,10,11,11,12,12],"right_children":[2,4,6,-1,8,10,12,14,-1,16,18,20,22,-1,-1,-1,-1,-1,-1,-1,-1,-1,-1],"split_conditions":[2.8862461E-2,-2.3470178E-1,-2.0605664E-1,-9.650864E-2,1.3250343E0,2.4504678E-1,-1.3630215E0,-2.0605664E-1,-7.958582E-2,1.6352868E-1,1.0723515E0,1.0723515E0,1.4898508E0,-1.29192965E-2,6.486464E-2,-8.504656E-2,5.50012E-3,-1.2976214E-2,5.580887E-2,-6.5694556E-2,6.1725896E-2,7.5768374E-2,2.3571003E-2],"split_indices":[2,3,11,0,3,4,3,11,0,3,2,2,0,0,0,0,0,0,0,0,0,0,0],"split_type":[0,0,0,0,0,0,0,0,0,0,0,0,0,0,0,0,0,0,0,0,0,0,0],"sum_hessian":[1.27285774E2,5.535547E1,7.1930305E1,3.9837963E1,1.5517506E1,1.5364612E1,5.6565697E1,1.2528078E1,2.9894276E0,9.439645E0,5.9249663E0,3.9299965E0,5.26357E1,3.217751E0,9.310327E0,8.203909E0,1.2357357E0,2.7269535E0,3.198013E0,1.4859945E0,2.4440022E0,4.9198563E1,3.4371357E0],"tree_param":{"num_deleted":"0","num_feature":"12","num_nodes":"23","size_leaf_vector":"1"}},{"base_weights":[3.8418714E-2,-1.4898273E0,1.567696E0,-1.8628644E0,-3.6112897E-2,1.1347237E-2,7.9746775E-2,-9.818614E-2,-9.9281245E-1,6.15802E-1,-8.000793E-2,-1.1235508E-2,-7.9826355E-2,-2.6881129E-2,5.344651E-2],"categories":[],"categories_nodes":[],"categories_segments":[],"categories_sizes":[],"default_left":[0,0,0,0,0,0,0,0,0,0,0,0,0,0,0],"id":2,"left_children":[1,3,5,7,9,-1,-1,-1,11,13,-1,-1,-1,-1,-1],"loss_changes":[3.0466672E2,3.5298157E1,2.017273E0,2.6027832E0,1.5603943E1,0E0,0E0,0E0,3.078133E0,6.2409477E0,0E0,0E0,0E0,0E0,0E0],"parents":[2147483647,0,0,1,1,2,2,3,3,4,4,8,8,9,9],"right_children":[2,4,6,8,10,-1,-1,-1,12,14,-1,-1,-1,-1,-1],"split_conditions":[5.002754E-1,2.630863E-1,-1.527418E0,1.0723515E0,-1.16880134E-1,1.1347237E-2,7.9746775E-2,-9.818614E-2,-6.4480644E-1,5.5605054E-1,-8.000793E-2,-1.1235508E-2,-7.9826355E-2,-2.6881129E-2,5.344651E-2],"split_indices":[10,3,0,2,9,0,0,0,9,1,0,0,0,0,0],"split_type":[0,0,0,0,0,0,0,0,0,0,0,0,0,0,0],"sum_hessian":[1.2836101E2,6.421506E1,6.414596E1,5.0877857E1,1.3337199E1,1.463091E0,6.2682865E1,4.446621E1,6.4116483E0,9.841435E0,3.495764E0,3.4255524E0,2.9860961E0,2.723183E0,7.1182523E0],"tree_param":{"num_deleted":"0","num_feature":"12","num_nodes":"15","size_leaf_vector":"1"}},{"base_weights":[-2.9560612E-3,-1.4779284E0,1.5174323E0,-1.7957907E0,-2.0456524E-1,6.855026E-1,7.9773E-2,-9.5017135E-2,-1.1460551E0,-7.6170065E-2,7.0267904E-1,-2.58023E-2,5.3921383E-2,-7.4263684E-2,7.796491E-3,-2.5716657E-2,4.9973305E-2],"categories":[],"categories_nodes":[],"categories_segments":[],"categories_sizes":[],"default_left":[0,0,0,0,0,0,0,0,0,0,0,0,0,0,0,0,0],"id":3,"left_children":[1,3,5,7,9,11,-1,-1,13,-1,15,-1,-1,-1,-1,-1,-1],"loss_changes":[2.9667862E2,2.681192E1,3.1351776E0,1.4637299E0,1.8470566E1,4.021648E0,0E0,0E0,4.62607E0,0E0,3.8731456E0,0E0,0E0,0E0,0E0,0E0,0E0],"parents":[2147483647,0,0,1,1,2,2,3,3,4,4,5,5,8,8,10,10],"right_children":[2,4,6,8,10,12,-1,-1,14,-1,16,-1,-1,-1,-1,-1,-1],"split_conditions":[5.002754E-1,2.630863E-1,-2.0605664E-1,8.1877536E-1,2.8862461E-2,-1.02454E0,7.9773E-2,-9.5017135E-2,1.0723515E0,-7.6170065E-2,-9.5347E-1,-2.58023E-2,5.3921383E-2,-7.4263684E-2,7.796491E-3,-2.5716657E-2,4.9973305E-2],"split_indices":[10,3,11,11,2,0,0,0,2,0,7,0,0,0,0,0,0],"split_type":[0,0,0,0,0,0,0,0,0,0,0,0,0,0,0,0,0],"sum_hessian":[1.302963E2,6.615011E1,6.414619E1,5.260768E1,1.3542424E1,6.3395333E0,5.7806652E1,4.3657722E1,8.94996E0,5.242457E0,8.299967E0,1.4850296E0,4.8545036E0,6.988423E0,1.9615368E0,1.4835365E0,6.8164306E0],"tree_param":{"num_deleted":"0","num_feature":"12","num_nodes":"17","size_leaf_vector":"1"}},{"base_weights":[1.0791065E-2,-1.3910003E0,1.4686443E0,-1.5573709E0,5.044935E-2,7.1650034E-1,7.728287E-2,-8.80502E-2,-4.8669323E-1,-1.6765986E-2,5.965333E-2,-5.7341345E-2,3.0596426E-2],"categories":[],"categories_nodes":[],"categories_segments":[],"categories_sizes":[],"default_left":[0,0,0,0,0,0,0,0,0,0,0,0,0],"id":4,"left_children":[1,3,5,7,-1,9,-1,-1,11,-1,-1,-1,-1],"loss_changes":[2.6495676E2,2.7964493E1,2.573761E0,1.2706009E1,0E0,4.2932863E0,0E0,0E0,8.913479E0,0E0,0E0,0E0,0E0],"parents":[2147483647,0,0,1,1,2,2,3,3,5,5,8,8],"right_children":[2,4,6,8,-1,10,-1,-1,12,-1,-1,-1,-1],"split_conditions":[5.002754E-1,1.6697127E0,-2.0605664E-1,2.630863E-1,5.044935E-2,3.5849303E-1,7.728287E-2,-8.80502E-2,1.4750172E0,-1.6765986E-2,5.965333E-2,-5.7341345E-2,3.0596426E-2],"split_indices":[10,6,11,3,0,6,0,0,5,0,0,0,0],"split_type":[0,0,0,0,0,0,0,0,0,0,0,0,0],"sum_hessian":[1.2765194E2,6.5100624E1,6.2551315E1,6.1208645E1,3.8919792E0,6.7668524E0,5.5784462E1,5.0885864E1,1.0322781E1,2.2023883E0,4.564464E0,6.4208055E0,3.901975E0],"tree_param":{"num_deleted":"0","num_feature":"12","num_nodes":"13","size_leaf_vector":"1"}},{"base_weights":[5.260804E-3,-1.3469343E0,1.4254302E0,-8.5520595E-2,-4.7556168E-1,-7.737997E-4,7.2660655E-2,-8.311488E-1,6.403889E-2,-5.7716228E-2,1.3511293E-2],"categories":[],"categories_nodes":[],"categories_segments":[],"categories_sizes":[],"default_left":[0,0,0,0,0,0,0,0,0,0,0],"id":5,"left_children":[1,3,5,-1,7,-1,-1,9,-1,-1,-1],"loss_changes":[2.4803079E2,2.01427E1,2.5443192E0,0E0,1.4092738E1,0E0,0E0,6.7027464E0,0E0,0E0,0E0],"parents":[2147483647,0,0,1,1,2,2,4,4,7,7],"right_children":[2,4,6,-1,8,-1,-1,10,-1,-1,-1],"split_conditions":[5.002754E-1,2.8862461E-2,-1.3787365E0,-8.5520595E-2,9.7171223E-1,-7.737997E-4,7.2660655E-2,1.4750172E0,6.403889E-2,-5.7716228E-2,1.3511293E-2],"split_indices":[10,2,4,0,4,0,0,5,0,0,0],"split_type":[0,0,0,0,0,0,0,0,0,0,0],"sum_hessian":[1.2715963E2,6.5165115E1,6.199452E1,4.5304325E1,1.9860785E1,1.1811203E0,6.0813396E1,1.6954884E1,2.905901E0,1.3071303E1,3.8835804E0],"tree_param":{"num_deleted":"0","num_feature":"12","num_nodes":"11","size_leaf_vector":"1"}},{"base_weights":[-1.052325E-2,-1.3091472E0,1.4287721E0,-1.5739514E0,-1.5632892E-1,1.2736717E-2,7.287639E-2,-8.164085E-2,-8.2776166E-4,5.7349104E-1,-7.1022487E-1,5.376426E-2,-8.347759E-3,-6.40483E-2,2.9178752E-2],"categories":[],"categories_nodes":[],"categories_segments":[],"categories_sizes":[],"default_left":[0,0,0,0,0,0,0,0,0,0,0,0,0,0,0],"id":6,"left_children":[1,3,5,7,9,-1,-1,-1,-1,11,13,-1,-1,-1,-1],"loss_changes":[2.3496622E2,1.9926422E1,1.6418152E0,4.8892975E0,5.845913E0,0E0,0E0,0E0,0E0,2.5419483E0,6.7254524E0,0E0,0E0,0E0,0E0],"parents":[2147483647,0,0,1,1,2,2,3,3,4,4,9,9,10,10],"right_children":[2,4,6,8,10,-1,-1,-1,-1,12,14,-1,-1,-1,-1],"split_conditions":[5.002754E-1,2.630863E-1,-1.527418E0,1.6697127E0,1.2918483E0,1.2736717E-2,7.287639E-2,-8.164085E-2,-8.2776166E-4,9.296707E-2,1.4750172E0,5.376426E-2,-8.347759E-3,-6.40483E-2,2.9178752E-2],"split_indices":[10,3,0,6,3,0,0,0,0,0,5,0,0,0,0],"split_type":[0,0,0,0,0,0,0,0,0,0,0,0,0,0,0],"sum_hessian":[1.23709915E2,6.5080536E1,5.862938E1,5.2626778E1,1.2453759E1,1.6373636E0,5.6992016E1,5.0663406E1,1.9633732E0,5.3582664E0,7.095493E0,2.9242883E0,2.433978E0,4.930426E0,2.1650665E0],"tree_param":{"num_deleted":"0","num_feature":"12","num_nodes":"15","size_leaf_vector":"1"}},{"base_weights":[-4.224108E-2,-1.0469505E0,7.7083975E-1,-1.5065476E0,7.2291404E-2,-6.111876E-1,1.1673701E0,-7.7986054E-2,-3.2471546E-3,6.6674167E-1,-7.1169235E-2,-9.484137E-1,5.4401822E-2,-5.9257578E-2,1.2567863E0,9.837273E-3,6.335109E-2,-6.704618E-2,-1.5251267E-2,1.8501E-2,6.473573E-2],"categories":[],"categories_nodes":[],"categories_segments":[],"categories_sizes":[],"default_left":[0,0,0,0,0,0,0,0,0,0,0,0,0,0,0,0,0,0,0,0,0],"id":7,"left_children":[1,3,5,7,9,11,13,-1,-1,15,-1,17,-1,-1,19,-1,-1,-1,-1,-1,-1],"loss_changes":[1.00973816E2,2.8539482E1,3.816889E1,2.9056091E0,1.6102064E1,1.013978E1,1.273349E1,0E0,0E0,3.383654E0,0E0,3.0751448E0,0E0,0E0,1.2692261E0,0E0,0E0,0E0,0E0,0E0,0E0],"parents":[2147483647,0,0,1,1,2,2,3,3,4,4,5,5,6,6,9,9,11,11,14,14],"right_children":[2,4,6,8,10,12,14,-1,-1,16,-1,18,-1,-1,20,-1,-1,-1,-1,-1,-1],"split_conditions":[2.8862461E-2,-2.3470178E-1,-2.0605664E-1,1.2049628E0,1.3250343E0,9.7171223E-1,-1.4505059E0,-7.7986054E-2,-3.2471546E-3,2.4504678E-1,-7.1169235E-2,1.0723515E0,5.4401822E-2,-5.9257578E-2,-1.3487082E0,9.837273E-3,6.335109E-2,-6.704618E-2,-1.5251267E-2,1.8501E-2,6.473573E-2],"split_indices":[2,3,11,4,3,4,4,0,0,4,0,2,0,0,9,0,0,0,0,0,0],"split_type":[0,0,0,0,0,0,0,0,0,0,0,0,0,0,0,0,0,0,0,0,0],"sum_hessian":[1.2161668E2,5.426936E1,6.734731E1,3.822634E1,1.604302E1,1.4894429E1,5.2452885E1,3.6787502E1,1.4388381E0,1.187684E1,4.16618E0,1.279667E1,2.097759E0,1.4719464E0,5.0980938E1,7.40599E0,4.4708495E0,7.274551E0,5.5221195E0,2.532267E0,4.8448673E1],"tree_param":{"num_deleted":"0","num_feature":"12","num_nodes":"21","size_leaf_vector":"1"}},{"base_weights":[-2.2356097E-2,-1.2192103E0,1.3020874E0,-1.3338194E0,6.047028E-2,3.0892685E-3,6.6547595E-2,-7.686947E-2,-3.085292E-1,-5.0127875E-2,3.3820197E-2],"categories":[],"categories_nodes":[],"categories_segments":[],"categories_sizes":[],"default_left":[0,0,0,0,0,0,0,0,0,0,0],"id":8,"left_children":[1,3,5,7,-1,-1,-1,-1,9,-1,-1],"loss_changes":[1.9178198E2,1.9300148E1,1.9741516E0,1.2290092E1,0E0,0E0,0E0,0E0,8.458586E0,0E0,0E0],"parents":[2147483647,0,0,1,1,2,2,3,3,8,8],"right_children":[2,4,6,8,-1,-1,-1,-1,10,-1,-1],"split_conditions":[5.002754E-1,1.2229052E0,-1.3607941E0,2.630863E-1,6.047028E-2,3.0892685E-3,6.6547595E-2,-7.686947E-2,1.4750172E0,-5.0127875E-2,3.3820197E-2],"split_indices":[10,4,4,3,0,0,0,0,5,0,0],"split_type":[0,0,0,0,0,0,0,0,0,0,0],"sum_hessian":[1.1898397E2,6.2544292E1,5.643968E1,6.015624E1,2.3880525E0,1.3550279E0,5.508465E1,4.977418E1,1.0382059E1,6.079954E0,4.3021045E0],"tree_param":{"num_deleted":"0","num_feature":"12","num_nodes":"11","size_leaf_vector":"1"}},{"base_weights":[1.6851373E-2,-9.65681E-1,7.7740896E-1,-7.221768E-2,1.4130428E-1,-4.9651653E-1,1.092572E0,6.986544E-1,-6.7242585E-2,-8.635428E-1,5.397616E-2,-2.577259E-2,1.1454084E0,-3.6383595E-3,5.139981E-2,-5.2372117E-2,2.2361157E-2,2.5417313E-2,6.2600866E-2],"categories":[],"categories_nodes":[],"categories_segments":[],"categories_sizes":[],"default_left":[0,0,0,0,0,0,0,0,0,0,0,0,0,0,0,0,0,0,0],"id":9,"left_children":[1,3,5,-1,7,9,11,13,-1,15,-1,-1,17,-1,-1,-1,-1,-1,-1],"loss_changes":[8.8671455E1,2.7642677E1,2.7391697E1,0E0,1.4642084E1,9.00184E0,5.1717987E0,3.298575E0,0E0,3.3299198E0,0E0,0E0,2.9303513E0,0E0,0E0,0E0,0E0,0E0,0E0],"parents":[2147483647,0,0,1,1,2,2,4,4,5,5,6,6,7,7,9,9,12,12],"right_children":[2,4,6,-1,8,10,12,14,-1,16,-1,-1,18,-1,-1,-1,-1,-1,-1],"split_conditions":[2.8862461E-2,-2.3470178E-1,-2.0605664E-1,-7.221768E-2,1.3250343E0,1.6697127E0,-1.3298681E0,-2.0605664E-1,-6.7242585E-2,1.4577777E0,5.397616E-2,-2.577259E-2,5.5605054E-1,-3.6383595E-3,5.139981E-2,-5.2372117E-2,2.2361157E-2,2.5417313E-2,6.2600866E-2],"split_indices":[2,3,11,0,3,6,7,11,0,3,0,0,1,0,0,0,0,0,0],"split_type":[0,0,0,0,0,0,0,0,0,0,0,0,0,0,0,0,0,0,0],"sum_hessian":[1.1665551E2,5.078229E1,6.5873215E1,3.523956E1,1.5542732E1,1.2950474E1,5.292274E1,1.1688943E1,3.8537898E0,1.0870942E1,2.0795317E0,1.405075E0,5.1517666E1,3.730349E0,7.958594E0,9.709588E0,1.1613547E0,8.212229E0,4.3305435E1],"tree_param":{"num_deleted":"0","num_feature":"12","num_nodes":"19","size_leaf_vector":"1"}},{"base_weights":[1.3714951E-2,-1.139429E0,1.2716439E0,-1.408581E0,-1.4711593E-1,2.9370293E-3,1.2995923E0,-7.276293E-2,1.28870625E-2,-1.0252987E0,5.0435954E-1,1.395361E-2,6.651477E-2,7.8257015E-3,-6.664303E-2,3.5067515E-3,3.8825035E-2],"categories":[],"categories_nodes":[],"categories_segments":[],"categories_sizes":[],"default_left":[0,0,0,0,0,0,0,0,0,0,0,0,0,0,0,0,0],"id":10,"left_children":[1,3,5,7,9,-1,11,-1,-1,13,15,-1,-1,-1,-1,-1,-1],"loss_changes":[1.745915E2,1.6566078E1,1.8748627E0,4.2085266E0,8.822117E0,0E0,1.3901749E0,0E0,0E0,2.5756574E0,1.0095646E0,0E0,0E0,0E0,0E0,0E0,0E0],"parents":[2147483647,0,0,1,1,2,2,3,3,4,4,6,6,9,9,10,10],"right_children":[2,4,6,8,10,-1,12,-1,-1,14,16,-1,-1,-1,-1,-1,-1],"split_conditions":[5.002754E-1,2.630863E-1,-1.527418E0,1.1959916E0,2.8862461E-2,2.9370293E-3,-1.3630215E0,-7.276293E-2,1.28870625E-2,1.0595472E0,-1.3053432E-1,1.395361E-2,6.651477E-2,7.8257015E-3,-6.664303E-2,3.5067515E-3,3.8825035E-2],"split_indices":[10,3,0,4,2,0,3,0,0,3,0,0,0,0,0,0,0],"split_type":[0,0,0,0,0,0,0,0,0,0,0,0,0,0,0,0,0],"sum_hessian":[1.1836148E2,6.1801876E1,5.6559605E1,4.8285557E1,1.3516321E1,1.3437867E0,5.5215816E1,4.7093033E1,1.1925217E0,5.512165E0,8.004156E0,1.9073693E0,5.330845E1,1.2397015E0,4.2724633E0,3.5683167E0,4.4358397E0],"tree_param":{"num_deleted":"0","num_feature":"12","num_nodes":"17","size_leaf_vector":"1"}},{"base_weights":[-8.607517E-2,-1.1092277E0,6.306633E-2,-1.3333769E0,-1.968145E-1,-7.2552495E-2,-4.72387E-1,3.0971926E-1,-6.3728586E-2,-5.077636E-2,2.314541E-2,-3.490846E-2,4.4230513E-2],"categories":[],"categories_nodes":[],"categories_segments":[],"categories_sizes":[],"default_left":[0,0,0,0,0,0,0,0,0,0,0,0,0],"id":11,"left_children":[1,3,-1,5,7,-1,9,11,-1,-1,-1,-1,-1],"loss_changes":[1.5229465E2,1.2570137E1,0E0,4.4003754E0,7.7907224E0,0E0,4.289431E0,6.4238577E0,0E0,0E0,0E0,0E0,0E0],"parents":[2147483647,0,0,1,1,3,3,4,4,6,6,7,7],"right_children":[2,4,-1,6,8,-1,10,12,-1,-1,-1,-1,-1],"split_conditions":[5.002754E-1,2.630863E-1,6.306633E-2,1.0723515E0,-1.16880134E-1,-7.2552495E-2,8.1877536E-1,5.5605054E-1,-6.3728586E-2,-5.077636E-2,2.314541E-2,-3.490846E-2,4.4230513E-2],"split_indices":[10,3,0,2,9,0,11,1,0,0,0,0,0],"split_type":[0,0,0,0,0,0,0,0,0,0,0,0,0],"sum_hessian":[1.0845583E2,6.17458E1,4.6710037E1,4.9198105E1,1.2547693E1,4.2679676E1,6.51843E0,9.020695E0,3.526999E0,4.0694537E0,2.4489763E0,3.1985745E0,5.82212E0],"tree_param":{"num_deleted":"0","num_feature":"12","num_nodes":"13","size_leaf_vector":"1"}},{"base_weights":[-1.7634514E-3,-7.5675064E-1,8.008805E-1,-1.3431563E0,5.62883E-1,-5.707527E-2,9.02873E-1,-6.963893E-2,-1.0187732E-2,6.161492E-2,-1.1826838E-2,-4.283585E-2,9.598966E-1,-2.6106486E-2,5.1413167E-2,2.337357E-2,5.6590993E-2],"categories":[],"categories_nodes":[],"categories_segments":[],"categories_sizes":[],"default_left":[0,0,0,0,0,0,0,0,0,0,0,0,0,0,0,0,0],"id":12,"left_children":[1,3,5,7,9,-1,11,-1,-1,-1,13,-1,15,-1,-1,-1,-1],"loss_changes":[6.781161E1,4.5377357E1,1.1776196E1,1.9900818E0,7.110662E0,0E0,6.0492783E0,0E0,0E0,0E0,6.3301105E0,0E0,3.7825546E0,0E0,0E0,0E0,0E0],"parents":[2147483647,0,0,1,1,2,2,3,3,4,4,6,6,10,10,12,12],"right_children":[2,4,6,8,10,-1,12,-1,-1,-1,14,-1,16,-1,-1,-1,-1],"split_conditions":[-2.3470178E-1,1.0723515E0,-1.6194052E0,1.6697127E0,-5.997464E-1,-5.707527E-2,-1.4505059E0,-6.963893E-2,-1.0187732E-2,6.161492E-2,2.4504678E-1,-4.283585E-2,2.8862461E-2,-2.6106486E-2,5.1413167E-2,2.337357E-2,5.6590993E-2],"split_indices":[3,2,7,6,3,0,4,0,0,0,4,0,2,0,0,0,0],"split_type":[0,0,0,0,0,0,0,0,0,0,0,0,0,0,0,0,0],"sum_hessian":[1.0990282E2,5.6662144E1,5.324067E1,3.9217316E1,1.7444828E1,2.147664E0,5.1093006E1,3.7367542E1,1.8497758E0,7.5298896E0,9.914938E0,1.163602E0,4.9929405E1,6.9855766E0,2.9293609E0,1.3883406E1,3.6045998E1],"tree_param":{"num_deleted":"0","num_feature":"12","num_nodes":"17","size_leaf_vector":"1"}},{"base_weights":[3.670545E-2,-1.0389416E0,1.2154082E0,-1.1882077E0,6.9888675E-1,4.5930848E-1,6.4511634E-2,-6.765186E-2,-4.678341E-1,4.9354196E-2,-2.4040656E-3,-1.6507126E-2,4.359596E-2,-4.418625E-2,2.1773022E-2],"categories":[],"categories_nodes":[],"categories_segments":[],"categories_sizes":[],"default_left":[0,0,0,0,0,0,0,0,0,0,0,0,0,0,0],"id":13,"left_children":[1,3,5,7,9,11,-1,-1,13,-1,-1,-1,-1,-1,-1],"loss_changes":[1.3739334E2,1.5532665E1,2.3318176E0,5.6085434E0,1.1481128E0,2.309888E0,0E0,0E0,4.6360993E0,0E0,0E0,0E0,0E0,0E0,0E0],"parents":[2147483647,0,0,1,1,2,2,3,3,4,4,5,5,8,8],"right_children":[2,4,6,8,10,12,-1,-1,14,-1,-1,-1,-1,-1,-1],"split_conditions":[5.002754E-1,1.6697127E0,-2.0605664E-1,1.9671455E-1,4.2821917E-1,3.5849303E-1,6.4511634E-2,-6.765186E-2,8.1877536E-1,4.9354196E-2,-2.4040656E-3,-1.6507126E-2,4.359596E-2,-4.418625E-2,2.1773022E-2],"split_indices":[10,6,11,3,0,6,0,0,11,0,0,0,0,0,0],"split_type":[0,0,0,0,0,0,0,0,0,0,0,0,0,0,0],"sum_hessian":[1.06369675E2,5.567813E1,5.069154E1,5.1565334E1,4.1127973E0,5.207575E0,4.5483967E1,4.1248886E1,1.0316448E1,2.7358072E0,1.3769901E0,1.8561187E0,3.3514564E0,7.078884E0,3.237564E0],"tree_param":{"num_deleted":"0","num_feature":"12","num_nodes":"15","size_leaf_vector":"1"}},{"base_weights":[-6.2097227E-3,-1.026703E0,1.1821451E0,-1.2344824E0,9.057869E-2,3.5230356E-1,6.3128464E-2,-1.2893556E0,-1.262233E-3,-4.386542E-1,5.5293303E-2,-3.346483E-2,4.2252675E-2,-6.8939105E-2,-3.5928726E-2,-4.239069E-2,9.9668205E-3],"categories":[],"categories_nodes":[],"categories_segments":[],"categories_sizes":[],"default_left":[0,0,0,0,0,0,0,0,0,0,0,0,0,0,0,0,0],"id":14,"left_children":[1,3,5,7,9,11,-1,13,-1,15,-1,-1,-1,-1,-1,-1,-1],"loss_changes":[1.27693886E2,1.3262077E1,2.8020248E0,3.1413193E0,5.7584677E0,3.427556E0,0E0,1.3437271E0,0E0,2.0399537E0,0E0,0E0,0E0,0E0,0E0,0E0,0E0],"parents":[2147483647,0,0,1,1,2,2,3,3,4,4,5,5,7,7,9,9],"right_children":[2,4,6,8,10,12,-1,14,-1,16,-1,-1,-1,-1,-1,-1,-1],"split_conditions":[5.002754E-1,1.0723515E0,-2.0605664E-1,1.6697127E0,1.4750172E0,3.5849303E-1,6.3128464E-2,2.630863E-1,-1.262233E-3,-2.585812E-1,5.5293303E-2,-3.346483E-2,4.2252675E-2,-6.8939105E-2,-3.5928726E-2,-4.239069E-2,9.9668205E-3],"split_indices":[10,2,11,6,5,6,0,3,0,7,0,0,0,0,0,0,0],"split_type":[0,0,0,0,0,0,0,0,0,0,0,0,0,0,0,0,0],"sum_hessian":[1.0329564E2,5.564598E1,4.7649654E1,4.683183E1,8.814153E0,4.6853437E0,4.2964314E1,4.473555E1,2.0962791E0,6.167307E0,2.646845E0,1.4079678E0,3.2773757E0,3.745217E1,7.2833767E0,3.557141E0,2.610166E0],"tree_param":{"num_deleted":"0","num_feature":"12","num_nodes":"17","size_leaf_vector":"1"}},{"base_weights":[5.9945796E-2,-9.276867E-1,1.1727709E0,-1.0700958E0,6.0220826E-1,4.739025E-1,6.2359E-2,-6.29669E-2,-3.097477E-1,-1.3379042E-2,4.884714E-2,-2.0689882E-2,3.8027313E-2,-4.2178243E-2,2.8865462E-2],"categories":[],"categories_nodes":[],"categories_segments":[],"categories_sizes":[],"default_left":[0,0,0,0,0,0,0,0,0,0,0,0,0,0,0],"id":15,"left_children":[1,3,5,7,9,11,-1,-1,13,-1,-1,-1,-1,-1,-1],"loss_changes":[1.14817E2,1.2710384E1,1.9621048E0,6.9519424E0,2.0071507E0,1.9272467E0,0E0,0E0,5.930144E0,0E0,0E0,0E0,0E0,0E0,0E0],"parents":[2147483647,0,0,1,1,2,2,3,3,4,4,5,5,8,8],"right_children":[2,4,6,8,10,12,-1,-1,14,-1,-1,-1,-1,-1,-1],"split_conditions":[5.002754E-1,1.6697127E0,-2.0605664E-1,8.1877536E-1,-5.665605E-1,-1.02454E0,6.2359E-2,-6.29669E-2,-2.3470178E-1,-1.3379042E-2,4.884714E-2,-2.0689882E-2,3.8027313E-2,-4.2178243E-2,2.8865462E-2],"split_indices":[10,6,11,11,3,0,0,0,3,0,0,0,0,0,0],"split_type":[0,0,0,0,0,0,0,0,0,0,0,0,0,0,0],"sum_hessian":[1.0247825E2,5.438125E1,4.8097E1,5.002523E1,4.356016E0,5.337243E0,4.2759758E1,3.953031E1,1.0494922E1,1.3977262E0,2.9582899E0,1.1944824E0,4.1427608E0,6.582628E0,3.9122941E0],"tree_param":{"num_deleted":"0","num_feature":"12","num_nodes":"15","size_leaf_vector":"1"}},{"base_weights":[3.0336963E-2,-9.199229E-1,1.1291835E0,-1.0556921E0,5.546524E-1,-1.1649199E-2,5.8249053E-2,-1.2300526E0,-1.4644526E-1,5.836311E-2,-1.32546155E-2,-6.565742E-2,1.7741585E-2,-4.322869E-2,3.635339E-2],"categories":[],"categories_nodes":[],"categories_segments":[],"categories_sizes":[],"default_left":[0,0,0,0,0,0,0,0,0,0,0,0,0,0,0],"id":16,"left_children":[1,3,5,7,9,-1,-1,11,13,-1,-1,-1,-1,-1,-1],"loss_changes":[1.0322083E2,1.1201828E1,2.5061874E0,7.572548E0,2.8838189E0,0E0,0E0,5.8520775E0,6.2766185E0,0E0,0E0,0E0,0E0,0E0,0E0],"parents":[2147483647,0,0,1,1,2,2,3,3,4,4,7,7,8,8],"right_children":[2,4,6,8,10,-1,-1,12,14,-1,-1,-1,-1,-1,-1],"split_conditions":[5.002754E-1,1.6697127E0,-1.3607941E0,1.4750172E0,1.4750172E0,-1.1649199E-2,5.8249053E-2,9.178851E-1,-3.021951E-1,5.836311E-2,-1.32546155E-2,-6.565742E-2,1.7741585E-2,-4.322869E-2,3.635339E-2],"split_indices":[10,6,4,5,5,0,0,4,4,0,0,0,0,0,0],"split_type":[0,0,0,0,0,0,0,0,0,0,0,0,0,0,0],"sum_hessian":[9.6857765E1,5.202792E1,4.4829845E1,4.790153E1,4.1263857E0,1.0069004E0,4.3822945E1,3.9897766E1,8.003768E0,2.1189344E0,2.0074513E0,3.807304E1,1.8247226E0,4.3981857E0,3.6055822E0],"tree_param":{"num_deleted":"0","num_feature":"12","num_nodes":"15","size_leaf_vector":"1"}},{"base_weights":[6.2720574E-2,-8.7647253E-1,1.145809E0,-1.1126511E0,2.1429645E-1,6.1051708E-2,5.265465E-1,-6.250091E-2,-4.3821254E-1,6.2858385E-1,-4.9399134E-2,-2.0237844E-2,4.940732E-2,-5.0708678E-2,9.309036E-3,-4.385896E-2,5.0495308E-2],"categories":[],"categories_nodes":[],"categories_segments":[],"categories_sizes":[],"default_left":[0,0,0,0,0,0,0,0,0,0,0,0,0,0,0,0,0],"id":17,"left_children":[1,3,5,7,9,-1,11,-1,13,15,-1,-1,-1,-1,-1,-1,-1],"loss_changes":[9.830112E1,1.3581409E1,1.4465904E0,3.4116058E0,5.630376E0,0E0,3.244429E0,0E0,3.3432345E0,5.5315037E0,0E0,0E0,0E0,0E0,0E0,0E0,0E0],"parents":[2147483647,0,0,1,1,2,2,3,3,4,4,6,6,8,8,9,9],"right_children":[2,4,6,8,10,-1,12,-1,14,16,-1,-1,-1,-1,-1,-1,-1],"split_conditions":[5.002754E-1,1.0723515E0,1.6428741E0,8.1877536E-1,-1.16880134E-1,6.1051708E-2,-6.334125E-1,-6.250091E-2,3.5849303E-1,-4.9392942E-1,-4.9399134E-2,-2.0237844E-2,4.940732E-2,-5.0708678E-2,9.309036E-3,-4.385896E-2,5.0495308E-2],"split_indices":[10,2,9,11,9,0,0,0,6,10,0,0,0,0,0,0,0],"split_type":[0,0,0,0,0,0,0,0,0,0,0,0,0,0,0,0,0],"sum_hessian":[9.464889E1,5.079398E1,4.3854904E1,4.1736855E1,9.057128E0,3.8238155E1,5.616748E0,3.396548E1,7.771373E0,7.0908875E0,1.9662408E0,1.9021661E0,3.7145817E0,3.7177463E0,4.0536265E0,1.1700886E0,5.920799E0],"tree_param":{"num_deleted":"0","num_feature":"12","num_nodes":"17","size_leaf_vector":"1"}},{"base_weights":[-5.135584E-2,-9.959481E-1,1.0846866E0,-1.2015927E0,-1.2642595E-1,-8.15865E-3,5.5952996E-2,-1.2661036E0,2.1131659E-2,6.2061805E-1,-8.230965E-1,-6.48975E-2,-9.956916E-3,-2.0463793E-2,5.1828172E-2,5.6153187E-3,-6.1441954E-2],"categories":[],"categories_nodes":[],"categories_segments":[],"categories_sizes":[],"default_left":[0,0,0,0,0,0,0,0,0,0,0,0,0,0,0,0,0],"id":18,"left_children":[1,3,5,7,9,-1,-1,11,-1,13,15,-1,-1,-1,-1,-1,-1],"loss_changes":[1.0464508E2,9.363892E0,2.082489E0,5.032318E0,6.3898673E0,0E0,0E0,1.15271E0,0E0,3.0035818E0,2.5195928E0,0E0,0E0,0E0,0E0,0E0,0E0],"parents":[2147483647,0,0,1,1,2,2,3,3,4,4,7,7,9,9,10,10],"right_children":[2,4,6,8,10,-1,-1,12,-1,14,16,-1,-1,-1,-1,-1,-1],"split_conditions":[5.002754E-1,2.630863E-1,-1.3787365E0,1.2049628E0,1.3914059E0,-8.15865E-3,5.5952996E-2,1.6697127E0,2.1131659E-2,5.5605054E-1,-7.0346487E-1,-6.48975E-2,-9.956916E-3,-2.0463793E-2,5.1828172E-2,5.6153187E-3,-6.1441954E-2],"split_indices":[10,3,4,4,3,0,0,6,0,1,9,0,0,0,0,0,0],"split_type":[0,0,0,0,0,0,0,0,0,0,0,0,0,0,0,0,0],"sum_hessian":[9.55102E1,5.2216633E1,4.3293568E1,4.1920425E1,1.0296208E1,1.060139E0,4.223343E1,4.05311E1,1.3893249E0,5.021157E0,5.275051E0,3.914619E1,1.3849092E0,1.4491214E0,3.5720356E0,1.8146791E0,3.460372E0],"tree_param":{"num_deleted":"0","num_feature":"12","num_nodes":"17","size_leaf_vector":"1"}},{"base_weights":[3.864409E-4,-7.502862E-1,6.15066E-1,-1.134767E0,1.5379572E-1,-5.4641545E-2,7.263222E-1,-5.9589844E-2,8.941432E-3,5.765902E-1,-5.356151E-2,-3.903355E-2,7.759025E-1,-1.2316419E-3,4.927619E-2,2.027927E-2,5.0540633E-2],"categories":[],"categories_nodes":[],"categories_segments":[],"categories_sizes":[],"default_left":[0,0,0,0,0,0,0,0,0,0,0,0,0,0,0,0,0],"id":19,"left_children":[1,3,5,7,9,-1,11,-1,-1,13,-1,-1,15,-1,-1,-1,-1],"loss_changes":[4.259534E1,1.4620659E1,1.0437622E1,2.4064827E0,7.496407E0,0E0,4.210844E0,0E0,0E0,2.6116035E0,0E0,0E0,3.6973095E0,0E0,0E0,0E0,0E0],"parents":[2147483647,0,0,1,1,2,2,3,3,4,4,6,6,9,9,12,12],"right_children":[2,4,6,8,10,-1,12,-1,-1,14,-1,-1,16,-1,-1,-1,-1],"split_conditions":[2.8862461E-2,-2.3470178E-1,-1.532544E0,1.6697127E0,1.3250343E0,-5.4641545E-2,-1.4660251E0,-5.9589844E-2,8.941432E-3,3.5849303E-1,-5.356151E-2,-3.903355E-2,-2.3470178E-1,-1.2316419E-3,4.927619E-2,2.027927E-2,5.0540633E-2],"split_indices":[2,3,7,6,3,0,9,0,0,6,0,0,3,0,0,0,0],"split_type":[0,0,0,0,0,0,0,0,0,0,0,0,0,0,0,0,0],"sum_hessian":[9.031286E1,4.0559395E1,4.9753464E1,2.8278275E1,1.2281121E1,2.5032556E0,4.7250206E1,2.7190517E1,1.0877566E0,9.523567E0,2.7575545E0,1.0353453E0,4.6214863E1,4.235786E0,5.287781E0,1.89959E1,2.7218964E1],"tree_param":{"num_deleted":"0","num_feature":"12","num_nodes":"17","size_leaf_vector":"1"}},{"base_weights":[-8.5006235E-3,-7.345908E-1,5.6476545E-1,-5.769515E-2,1.4374898E-1,-4.6160147E-1,9.109764E-1,6.0948175E-1,-5.389545E-2,-7.2968096E-1,4.4112306E-2,-2.7384652E-2,9.647894E-1,-1.0296751E-2,4.7649827E-2,1.2067231E-2,-4.2882588E-2,2.3447254E-3,5.0991595E-2],"categories":[],"categories_nodes":[],"categories_segments":[],"categories_sizes":[],"default_left":[0,0,0,0,0,0,0,0,0,0,0,0,0,0,0,0,0,0,0],"id":20,"left_children":[1,3,5,-1,7,9,11,13,-1,15,-1,-1,17,-1,-1,-1,-1,-1,-1],"loss_changes":[3.854749E1,1.52119465E1,1.8812355E1,0E0,8.67375E0,5.5861235E0,3.5928345E0,3.2326007E0,0E0,1.6962419E0,0E0,0E0,1.8726959E0,0E0,0E0,0E0,0E0,0E0,0E0],"parents":[2147483647,0,0,1,1,2,2,4,4,5,5,6,6,7,7,9,9,12,12],"right_children":[2,4,6,-1,8,10,12,14,-1,16,-1,-1,18,-1,-1,-1,-1,-1,-1],"split_conditions":[2.8862461E-2,-2.3470178E-1,-2.0605664E-1,-5.769515E-2,1.3250343E0,1.6697127E0,-1.3877755E0,-2.0605664E-1,-5.389545E-2,-1.527418E0,4.4112306E-2,-2.7384652E-2,-1.3487082E0,-1.0296751E-2,4.7649827E-2,1.2067231E-2,-4.2882588E-2,2.3447254E-3,5.0991595E-2],"split_indices":[2,3,11,0,3,6,7,11,0,0,0,0,9,0,0,0,0,0,0],"split_type":[0,0,0,0,0,0,0,0,0,0,0,0,0,0,0,0,0,0,0],"sum_hessian":[9.061146E1,3.985293E1,5.075853E1,2.6762836E1,1.309009E1,1.2718964E1,3.8039566E1,9.83992E0,3.2501702E0,1.0984688E1,1.734276E0,1.0268836E0,3.7012684E1,3.0353286E0,6.804591E0,1.1759319E0,9.808756E0,2.1987104E0,3.4813972E1],"tree_param":{"num_deleted":"0","num_feature":"12","num_nodes":"19","size_leaf_vector":"1"}},{"base_weights":[2.4000496E-2,-7.389525E-1,6.451724E-1,-5.6856137E-2,-1.3940213E-2,-5.2051645E-2,7.458148E-1,-4.2656377E-1,5.091518E-2,-5.2599054E-2,8.269258E-1,3.4189034E-2,-3.340313E-2,6.671364E-3,4.479855E-2],"categories":[],"categories_nodes":[],"categories_segments":[],"categories_sizes":[],"default_left":[0,0,0,0,0,0,0,0,0,0,0,0,0,0,0],"id":21,"left_children":[1,3,5,-1,7,-1,9,11,-1,-1,13,-1,-1,-1,-1],"loss_changes":[4.336391E1,1.18425045E1,9.332113E0,0E0,7.0680633E0,0E0,7.8924236E0,3.6294281E0,0E0,0E0,2.1136742E0,0E0,0E0,0E0,0E0],"parents":[2147483647,0,0,1,1,2,2,4,4,6,6,7,7,10,10],"right_children":[2,4,6,-1,8,-1,10,12,-1,-1,14,-1,-1,-1,-1],"split_conditions":[2.8862461E-2,-2.6788765E-1,-1.5614977E0,-5.6856137E-2,2.4504678E-1,-5.2051645E-2,-1.4505059E0,5.5605054E-1,5.091518E-2,-5.2599054E-2,-9.9797684E-1,3.4189034E-2,-3.340313E-2,6.671364E-3,4.479855E-2],"split_indices":[2,3,7,0,4,0,4,1,0,0,3,0,0,0,0],"split_type":[0,0,0,0,0,0,0,0,0,0,0,0,0,0,0],"sum_hessian":[8.949357E1,4.007811E1,4.941546E1,2.5503435E1,1.4574675E1,2.2569919E0,4.7158466E1,1.083165E1,3.7430246E0,1.5190744E0,4.5639393E1,1.6078408E0,9.223809E0,4.3979807E0,4.1241413E1],"tree_param":{"num_deleted":"0","num_feature":"12","num_nodes":"15","size_leaf_vector":"1"}},{"base_weights":[2.6441617E-2,-8.3163846E-1,1.0430313E0,-9.588489E-1,5.54333E-2,2.5733858E-1,5.768637E-2,-1.1031995E0,-2.7525395E-1,-2.4853615E-2,3.7433606E-2,-1.0103969E-3,-5.687796E-2,-2.4899906E-2,3.729796E-2],"categories":[],"categories_nodes":[],"categories_segments":[],"categories_sizes":[],"default_left":[0,0,0,0,0,0,0,0,0,0,0,0,0,0,0],"id":22,"left_children":[1,3,5,7,-1,9,-1,11,13,-1,-1,-1,-1,-1,-1],"loss_changes":[7.625705E1,1.2768196E1,3.1822205E0,4.1408615E0,0E0,2.680292E0,0E0,1.3484535E0,2.4608474E0,0E0,0E0,0E0,0E0,0E0,0E0],"parents":[2147483647,0,0,1,1,2,2,3,3,5,5,7,7,8,8],"right_children":[2,4,6,8,-1,10,-1,12,14,-1,-1,-1,-1,-1,-1],"split_conditions":[5.002754E-1,1.2229052E0,-2.0605664E-1,1.0723515E0,5.54333E-2,3.5849303E-1,5.768637E-2,-1.5832934E0,1.6697127E0,-2.4853615E-2,3.7433606E-2,-1.0103969E-3,-5.687796E-2,-2.4899906E-2,3.729796E-2],"split_indices":[10,4,11,2,0,6,0,0,6,0,0,0,0,0,0],"split_type":[0,0,0,0,0,0,0,0,0,0,0,0,0,0,0],"sum_hessian":[8.5424736E1,4.6422504E1,3.9002235E1,4.4040913E1,2.3815892E0,5.227006E0,3.377523E1,3.5855667E1,8.185245E0,2.0569744E0,3.1700315E0,1.1514356E0,3.4704235E1,7.1401925E0,1.0450523E0],"tree_param":{"num_deleted":"0","num_feature":"12","num_nodes":"15","size_leaf_vector":"1"}},{"base_weights":[-4.2948436E-2,-8.70371E-1,1.0219861E0,-9.791529E-1,5.2576613E-2,3.523225E-1,5.5540513E-2,-1.0612775E0,2.524999E-1,-1.1289936E-2,3.531277E-2,-5.911649E-2,-2.6504168E-2,-2.5890127E-2,4.3672767E-2],"categories":[],"categories_nodes":[],"categories_segments":[],"categories_sizes":[],"default_left":[0,0,0,0,0,0,0,0,0,0,0,0,0,0,0],"id":23,"left_children":[1,3,5,7,-1,9,-1,11,13,-1,-1,-1,-1,-1,-1],"loss_changes":[7.7025635E1,1.1308487E1,1.8832512E0,5.0269547E0,0E0,1.375443E0,0E0,2.221878E0,2.245449E0,0E0,0E0,0E0,0E0,0E0,0E0],"parents":[2147483647,0,0,1,1,2,2,3,3,5,5,7,7,8,8],"right_children":[2,4,6,8,-1,10,-1,12,14,-1,-1,-1,-1,-1,-1],"split_conditions":[5.002754E-1,1.2229052E0,-2.0605664E-1,1.6697127E0,5.2576613E-2,3.5849303E-1,5.5540513E-2,4.953874E-1,-2.6788765E-1,-1.1289936E-2,3.531277E-2,-5.911649E-2,-2.6504168E-2,-2.5890127E-2,4.3672767E-2],"split_indices":[10,4,11,6,0,6,0,3,3,0,0,0,0,0,0],"split_type":[0,0,0,0,0,0,0,0,0,0,0,0,0,0,0],"sum_hessian":[8.540533E1,4.8165142E1,3.7240185E1,4.6049232E1,2.1159108E0,4.9426956E0,3.229749E1,4.3300365E1,2.748868E0,2.0143862E0,2.9283094E0,3.4265835E1,9.034529E0,1.3010366E0,1.4478314E0],"tree_param":{"num_deleted":"0","num_feature":"12","num_nodes":"15","size_leaf_vector":"1"}},{"base_weights":[5.965617E-3,-8.3073694E-1,9.922004E-1,-9.3524945E-1,5.0692834E-2,5.462419E-2,1.3753696E-1,-5.374182E-2,-2.9887608E-1,-1.8904025E-2,3.743708E-2,-4.1322794E-2,1.8070126E-2],"categories":[],"categories_nodes":[],"categories_segments":[],"categories_sizes":[],"default_left":[0,0,0,0,0,0,0,0,0,0,0,0,0],"id":24,"left_children":[1,3,5,7,-1,-1,9,-1,11,-1,-1,-1,-1],"loss_changes":[6.9302505E1,9.708366E0,3.1533623E0,3.544979E0,0E0,0E0,1.9192674E0,0E0,3.5086174E0,0E0,0E0,0E0,0E0],"parents":[2147483647,0,0,1,1,2,2,3,3,6,6,8,8],"right_children":[2,4,6,8,-1,-1,10,-1,12,-1,-1,-1,-1],"split_conditions":[5.002754E-1,1.2229052E0,1.6428741E0,1.4750172E0,5.0692834E-2,5.462419E-2,8.1877536E-1,-5.374182E-2,2.8862461E-2,-1.8904025E-2,3.743708E-2,-4.1322794E-2,1.8070126E-2],"split_indices":[10,4,9,5,0,0,11,0,2,0,0,0,0],"split_type":[0,0,0,0,0,0,0,0,0,0,0,0,0],"sum_hessian":[8.1985306E1,4.4440506E1,3.7544804E1,4.252412E1,1.916388E0,3.335301E1,4.1917953E0,3.430943E1,8.21469E0,2.4805772E0,1.7112184E0,4.426291E0,3.7883992E0],"tree_param":{"num_deleted":"0","num_feature":"12","num_nodes":"13","size_leaf_vector":"1"}},{"base_weights":[4.870902E-2,-7.6371247E-1,1.0677412E0,-8.80871E-1,5.1858556E-2,4.270997E-1,5.717054E-2,-1.0836192E0,-1.8091826E-1,4.5355026E-2,-8.181134E-3,-5.8341302E-2,-2.4030957E-2,1.0922037E-2,-5.1014315E-2],"categories":[],"categories_nodes":[],"categories_segments":[],"categories_sizes":[],"default_left":[0,0,0,0,0,0,0,0,0,0,0,0,0,0,0],"id":25,"left_children":[1,3,5,7,-1,9,-1,11,13,-1,-1,-1,-1,-1,-1],"loss_changes":[6.815721E1,1.05858135E1,1.2810555E0,5.9889717E0,0E0,1.6943264E0,0E0,1.1247177E0,3.9065523E0,0E0,0E0,0E0,0E0,0E0,0E0],"parents":[2147483647,0,0,1,1,2,2,3,3,5,5,7,7,8,8],"right_children":[2,4,6,8,-1,10,-1,12,14,-1,-1,-1,-1,-1,-1],"split_conditions":[5.002754E-1,1.2229052E0,-2.0605664E-1,2.630863E-1,5.1858556E-2,-1.16880134E-1,5.717054E-2,1.0723515E0,-1.7553861E-1,4.5355026E-2,-8.181134E-3,-5.8341302E-2,-2.4030957E-2,1.0922037E-2,-5.1014315E-2],"split_indices":[10,4,11,3,0,9,0,2,9,0,0,0,0,0,0],"split_type":[0,0,0,0,0,0,0,0,0,0,0,0,0,0,0],"sum_hessian":[8.0342064E1,4.484223E1,3.5499836E1,4.2582825E1,2.2594059E0,4.452017E0,3.104782E1,3.2593628E1,9.989199E0,2.160715E0,2.2913015E0,2.7819794E1,4.773833E0,7.2699966E0,2.7192023E0],"tree_param":{"num_deleted":"0","num_feature":"12","num_nodes":"15","size_leaf_vector":"1"}},{"base_weights":[-6.6031516E-2,-8.272363E-1,9.39161E-1,-1.0557555E0,-1.03266746E-1,7.562908E-2,5.337025E-2,-5.8304645E-2,-2.2179635E-2,-5.0921375E-1,4.2779115E-1,-3.2057695E-2,3.1144364E-2,1.3519974E-2,-5.1110953E-2,4.458812E-2,-5.7728044E-3],"categories":[],"categories_nodes":[],"categories_segments":[],"categories_sizes":[],"default_left":[0,0,0,0,0,0,0,0,0,0,0,0,0,0,0,0,0],"id":26,"left_children":[1,3,5,7,9,11,-1,-1,-1,13,15,-1,-1,-1,-1,-1,-1],"loss_changes":[5.928919E1,7.1784E0,3.6205616E0,1.7368279E0,2.7350607E0,2.5168226E0,0E0,0E0,0E0,3.1057458E0,1.5149844E0,0E0,0E0,0E0,0E0,0E0,0E0],"parents":[2147483647,0,0,1,1,2,2,3,3,4,4,5,5,9,9,10,10],"right_children":[2,4,6,8,10,12,-1,-1,-1,14,16,-1,-1,-1,-1,-1,-1],"split_conditions":[5.002754E-1,2.630863E-1,-2.0605664E-1,8.1877536E-1,1.4750172E0,3.5849303E-1,5.337025E-2,-5.8304645E-2,-2.2179635E-2,1.1922908E0,9.296707E-2,-3.2057695E-2,3.1144364E-2,1.3519974E-2,-5.1110953E-2,4.458812E-2,-5.7728044E-3],"split_indices":[10,3,11,11,5,6,0,0,0,3,0,0,0,0,0,0,0],"split_type":[0,0,0,0,0,0,0,0,0,0,0,0,0,0,0,0,0],"sum_hessian":[7.547091E1,4.3048496E1,3.242241E1,3.237205E1,1.0676443E1,4.39802E0,2.8024391E1,2.6661634E1,5.7104173E0,6.074305E0,4.6021385E0,1.8298112E0,2.5682087E0,2.598413E0,3.4758923E0,2.136164E0,2.4659743E0],"tree_param":{"num_deleted":"0","num_feature":"12","num_nodes":"17","size_leaf_vector":"1"}},{"base_weights":[1.182199E-2,-7.6271904E-1,9.675406E-1,-8.7624043E-1,5.043123E-2,2.4660988E-1,5.3932168E-2,-1.0884413E0,-1.7511466E-1,-6.920442E-2,4.6456926E-2,-5.8363307E-2,-2.0445867E-2,-5.5502392E-2,1.0827845E-2],"categories":[],"categories_nodes":[],"categories_segments":[],"categories_sizes":[],"default_left":[0,0,0,0,0,0,0,0,0,0,0,0,0,0,0],"id":27,"left_children":[1,3,5,7,-1,9,-1,11,13,-1,-1,-1,-1,-1,-1],"loss_changes":[5.78739E1,9.569267E0,2.5368004E0,5.9282E0,0E0,7.9294796E0,0E0,1.2034836E0,4.1758084E0,0E0,0E0,0E0,0E0,0E0,0E0],"parents":[2147483647,0,0,1,1,2,2,3,3,5,5,7,7,8,8],"right_children":[2,4,6,8,-1,10,-1,12,14,-1,-1,-1,-1,-1,-1],"split_conditions":[5.002754E-1,1.2229052E0,-6.99304E-1,2.630863E-1,5.043123E-2,1.0723515E0,5.3932168E-2,1.0723515E0,5.5605054E-1,-6.920442E-2,4.6456926E-2,-5.8363307E-2,-2.0445867E-2,-5.5502392E-2,1.0827845E-2],"split_indices":[10,4,3,3,0,2,0,2,1,0,0,0,0,0,0],"split_type":[0,0,0,0,0,0,0,0,0,0,0,0,0,0,0],"sum_hessian":[7.6185356E1,4.219295E1,3.3992405E1,4.012665E1,2.0663018E0,4.968985E0,2.9023418E1,3.037962E1,9.747031E0,1.1628408E0,3.8061442E0,2.6578714E1,3.8009048E0,2.3362336E0,7.4107976E0],"tree_param":{"num_deleted":"0","num_feature":"12","num_nodes":"15","size_leaf_vector":"1"}},{"base_weights":[-1.2094188E-3,-7.997742E-1,5.1104642E-2,-9.5046586E-1,4.5620802E-1,-5.5157192E-2,-3.2054862E-1,5.405757E-2,-2.372215E-2,-3.4873135E-2,2.0355016E-2],"categories":[],"categories_nodes":[],"categories_segments":[],"categories_sizes":[],"default_left":[0,0,0,0,0,0,0,0,0,0,0],"id":28,"left_children":[1,3,-1,5,7,-1,9,-1,-1,-1,-1],"loss_changes":[5.8898846E1,8.095634E0,0E0,3.1539078E0,3.428209E0,0E0,2.6219225E0,0E0,0E0,0E0,0E0],"parents":[2147483647,0,0,1,1,3,3,4,4,6,6],"right_children":[2,4,-1,6,8,-1,10,-1,-1,-1,-1],"split_conditions":[5.002754E-1,1.6697127E0,5.1104642E-2,4.953874E-1,1.4750172E0,-5.5157192E-2,1.0723515E0,5.405757E-2,-2.372215E-2,-3.4873135E-2,2.0355016E-2],"split_indices":[10,6,0,3,5,0,2,0,0,0,0],"split_type":[0,0,0,0,0,0,0,0,0,0,0],"sum_hessian":[7.0076004E1,3.9482826E1,3.059318E1,3.547037E1,4.012454E0,2.7945704E1,7.524668E0,2.3037457E0,1.7087082E0,4.984327E0,2.5403411E0],"tree_param":{"num_deleted":"0","num_feature":"12","num_nodes":"11","size_leaf_vector":"1"}},{"base_weights":[-3.2742433E-2,-6.9226295E-1,8.943462E-1,-8.0759805E-1,4.9931563E-2,5.0635107E-2,1.4335217E-1,-1.0182227E0,-1.8276986E-1,-4.018604E-2,4.142867E-2,-5.5679273E-2,-2.189934E-2,1.4886088E-2,-3.695407E-2],"categories":[],"categories_nodes":[],"categories_segments":[],"categories_sizes":[],"default_left":[0,0,0,0,0,0,0,0,0,0,0,0,0,0,0],"id":29,"left_children":[1,3,5,7,-1,-1,9,11,13,-1,-1,-1,-1,-1,-1],"loss_changes":[4.4821957E1,9.154572E0,2.56468E0,5.1604424E0,0E0,0E0,4.11548E0,1.1813812E0,3.2835746E0,0E0,0E0,0E0,0E0,0E0,0E0],"parents":[2147483647,0,0,1,1,2,2,3,3,6,6,7,7,8,8],"right_children":[2,4,6,8,-1,-1,10,12,14,-1,-1,-1,-1,-1,-1],"split_conditions":[5.002754E-1,1.2229052E0,1.6428741E0,2.630863E-1,4.9931563E-2,5.0635107E-2,3.5849303E-1,1.0723515E0,-6.4480644E-1,-4.018604E-2,4.142867E-2,-5.5679273E-2,-2.189934E-2,1.4886088E-2,-3.695407E-2],"split_indices":[10,4,9,3,0,0,6,2,9,0,0,0,0,0,0],"split_type":[0,0,0,0,0,0,0,0,0,0,0,0,0,0,0],"sum_hessian":[7.129371E1,4.18064E1,2.9487312E1,3.962592E1,2.180481E0,2.5171782E1,4.3155313E0,2.9165014E1,1.0460903E1,1.7390212E0,2.5765102E0,2.4258839E1,4.906175E0,5.8623576E0,4.5985456E0],"tree_param":{"num_deleted":"0","num_feature":"12","num_nodes":"15","size_leaf_vector":"1"}},{"base_weights":[-1.6437087E-2,-6.5081495E-1,4.666269E-1,-5.7358067E-2,-1.3263024E-1,-4.3613836E-1,7.617836E-1,-5.244899E-1,2.8878001E-2,-3.808607E-2,4.133382E-2,-4.6497922E-2,8.583438E-1,-3.7273742E-2,1.3687395E-2,-1.1425043E-2,4.607959E-2],"categories":[],"categories_nodes":[],"categories_segments":[],"categories_sizes":[],"default_left":[0,0,0,0,0,0,0,0,0,0,0,0,0,0,0,0,0],"id":30,"left_children":[1,3,5,-1,7,9,11,13,-1,-1,-1,-1,15,-1,-1,-1,-1],"loss_changes":[2.2122118E1,7.8715143E0,1.125757E1,0E0,4.865047E0,5.044833E0,5.9053097E0,2.160022E0,0E0,0E0,0E0,0E0,2.2793808E0,0E0,0E0,0E0,0E0],"parents":[2147483647,0,0,1,1,2,2,4,4,5,5,6,6,7,7,12,12],"right_children":[2,4,6,-1,8,10,12,14,-1,-1,-1,-1,16,-1,-1,-1,-1],"split_conditions":[2.8862461E-2,-4.3381703E-1,-2.0605664E-1,-5.7358067E-2,8.1877536E-1,9.7171223E-1,-1.4505059E0,2.4504678E-1,2.8878001E-2,-3.808607E-2,4.133382E-2,-4.6497922E-2,-1.2719607E0,-3.7273742E-2,1.3687395E-2,-1.1425043E-2,4.607959E-2],"split_indices":[2,3,11,0,11,4,4,4,0,0,0,0,7,0,0,0,0],"split_type":[0,0,0,0,0,0,0,0,0,0,0,0,0,0,0,0,0],"sum_hessian":[7.0198494E1,3.0196304E1,4.000219E1,1.4803179E1,1.5393126E1,9.738474E0,3.0263716E1,1.00882435E1,5.304881E0,8.057794E0,1.6806804E0,1.168076E0,2.909564E1,7.9527073E0,2.1355367E0,1.456394E0,2.7639246E1],"tree_param":{"num_deleted":"0","num_feature":"12","num_nodes":"17","size_leaf_vector":"1"}},{"base_weights":[3.698703E-2,-6.7388636E-1,5.3425103E-1,-5.272314E-2,1.7536832E-1,-5.221658E-2,6.4287096E-1,6.277699E-1,-4.568146E-2,-4.3260425E-2,7.429504E-1,2.2654603E-3,4.5293655E-2,1.0743307E-2,4.453116E-2],"categories":[],"categories_nodes":[],"categories_segments":[],"categories_sizes":[],"default_left":[0,0,0,0,0,0,0,0,0,0,0,0,0,0,0],"id":31,"left_children":[1,3,5,-1,7,-1,9,11,-1,-1,13,-1,-1,-1,-1],"loss_changes":[2.4763634E1,9.511704E0,7.7321167E0,0E0,5.395423E0,0E0,6.551134E0,1.1750493E0,0E0,0E0,2.7134151E0,0E0,0E0,0E0,0E0],"parents":[2147483647,0,0,1,1,2,2,4,4,6,6,7,7,10,10],"right_children":[2,4,6,-1,8,-1,10,12,-1,-1,14,-1,-1,-1,-1],"split_conditions":[2.8862461E-2,-2.3470178E-1,-1.4415348E0,-5.272314E-2,1.3250343E0,-5.221658E-2,-1.532544E0,-2.0605664E-1,-4.568146E-2,-4.3260425E-2,-2.0605664E-1,2.2654603E-3,4.5293655E-2,1.0743307E-2,4.453116E-2],"split_indices":[2,3,4,0,3,0,7,11,0,0,11,0,0,0,0],"split_type":[0,0,0,0,0,0,0,0,0,0,0,0,0,0,0],"sum_hessian":[6.8035866E1,2.7857067E1,4.01788E1,1.9069721E1,8.787345E0,2.032066E0,3.8146732E1,6.5074806E0,2.2798643E0,1.8981792E0,3.6248554E1,2.4787977E0,4.0286827E0,8.457866E0,2.7790686E1],"tree_param":{"num_deleted":"0","num_feature":"12","num_nodes":"15","size_leaf_vector":"1"}},{"base_weights":[2.791526E-2,-6.2909395E-1,9.50971E-1,-8.55415E-1,2.1256427E-1,-1.2609117E-2,5.0318487E-2,-1.0153311E0,-1.9980592E-1,2.978218E-2,-3.1084402E-2,-5.5277992E-2,-1.5403417E-2,-3.8214877E-2,1.2194869E-2],"categories":[],"categories_nodes":[],"categories_segments":[],"categories_sizes":[],"default_left":[0,0,0,0,0,0,0,0,0,0,0,0,0,0,0],"id":32,"left_children":[1,3,5,7,9,-1,-1,11,13,-1,-1,-1,-1,-1,-1],"loss_changes":[4.0063236E1,7.537936E0,2.0838852E0,3.0087833E0,3.2416654E0,0E0,0E0,1.215313E0,2.0027566E0,0E0,0E0,0E0,0E0,0E0,0E0],"parents":[2147483647,0,0,1,1,2,2,3,3,4,4,7,7,8,8],"right_children":[2,4,6,8,10,-1,-1,12,14,-1,-1,-1,-1,-1,-1],"split_conditions":[5.002754E-1,1.0723515E0,-1.3428518E0,8.1877536E-1,-2.3419708E-1,-1.2609117E-2,5.0318487E-2,3.2578737E-1,5.5605054E-1,2.978218E-2,-3.1084402E-2,-5.5277992E-2,-1.5403417E-2,-3.8214877E-2,1.2194869E-2],"split_indices":[10,2,4,11,9,0,0,4,1,0,0,0,0,0,0],"split_type":[0,0,0,0,0,0,0,0,0,0,0,0,0,0,0],"sum_hessian":[6.407475E1,3.761778E1,2.6456978E1,2.9633118E1,7.984661E0,1.0082216E0,2.5448755E1,2.3381273E1,6.2518444E0,5.667996E0,2.3166652E0,2.0236465E1,3.1448085E0,2.4334278E0,3.8184166E0],"tree_param":{"num_deleted":"0","num_feature":"12","num_nodes":"15","size_leaf_vector":"1"}},{"base_weights":[-8.014049E-3,-6.6288924E-1,8.9321744E-1,-9.350754E-1,9.3148656E-2,5.097861E-2,1.4376354E-1,-1.0265284E0,8.710058E-3,4.2447954E-1,-5.2120663E-2,-3.470116E-2,3.979499E-2,-5.339069E-2,-3.1338192E-3,-2.2946764E-2,3.6887523E-2],"categories":[],"categories_nodes":[],"categories_segments":[],"categories_sizes":[],"default_left":[0,0,0,0,0,0,0,0,0,0,0,0,0,0,0,0,0],"id":33,"left_children":[1,3,5,7,9,-1,11,13,-1,15,-1,-1,-1,-1,-1,-1,-1],"loss_changes":[3.9897316E1,8.142321E0,2.547823E0,3.1078663E0,4.6833367E0,0E0,3.4311516E0,1.0002747E0,0E0,2.9500246E0,0E0,0E0,0E0,0E0,0E0,0E0,0E0],"parents":[2147483647,0,0,1,1,2,2,3,3,4,4,6,6,7,7,9,9],"right_children":[2,4,6,8,10,-1,12,14,-1,16,-1,-1,-1,-1,-1,-1,-1],"split_conditions":[5.002754E-1,8.1877536E-1,1.6428741E0,1.6697127E0,1.8436073E0,5.097861E-2,-6.334125E-1,9.178851E-1,8.710058E-3,5.5605054E-1,-5.2120663E-2,-3.470116E-2,3.979499E-2,-5.339069E-2,-3.1338192E-3,-2.2946764E-2,3.6887523E-2],"split_indices":[10,11,9,6,11,0,0,4,0,1,0,0,0,0,0,0,0],"split_type":[0,0,0,0,0,0,0,0,0,0,0,0,0,0,0,0,0],"sum_hessian":[6.559709E1,3.8144238E1,2.745285E1,2.787277E1,1.0271469E1,2.318375E1,4.2691007E0,2.581877E1,2.0540001E0,8.43618E0,1.8352892E0,1.8404629E0,2.4286375E0,2.4654848E1,1.163921E0,2.0867174E0,6.3494625E0],"tree_param":{"num_deleted":"0","num_feature":"12","num_nodes":"17","size_leaf_vector":"1"}},{"base_weights":[-8.296831E-4,-6.1790174E-1,8.342895E-1,-8.343726E-1,3.0752042E-1,-1.2819253E-1,9.926043E-1,-9.54452E-1,3.0236427E-2,-6.352145E-1,5.8043927E-2,-3.327748E-2,2.1664483E-2,5.329097E-2,1.12738535E-2,-5.4217458E-2,-1.1438615E-2,5.321396E-3,-4.9806263E-2],"categories":[],"categories_nodes":[],"categories_segments":[],"categories_sizes":[],"default_left":[0,0,0,0,0,0,0,0,0,0,0,0,0,0,0,0,0,0,0],"id":34,"left_children":[1,3,5,7,9,11,13,15,-1,17,-1,-1,-1,-1,-1,-1,-1,-1,-1],"loss_changes":[3.2364513E1,7.491602E0,4.193716E0,5.681671E0,6.833256E0,1.6929413E0,1.0532818E0,2.3584824E0,0E0,1.2426476E0,0E0,0E0,0E0,0E0,0E0,0E0,0E0,0E0,0E0],"parents":[2147483647,0,0,1,1,2,2,3,3,4,4,5,5,6,6,7,7,9,9],"right_children":[2,4,6,8,10,12,14,16,-1,18,-1,-1,-1,-1,-1,-1,-1,-1,-1],"split_conditions":[5.002754E-1,3.2578737E-1,-2.0605664E-1,1.6697127E0,5.5605054E-1,3.5849303E-1,1.8188496E0,1.4750172E0,3.0236427E-2,7.3846155E-1,5.8043927E-2,-3.327748E-2,2.1664483E-2,5.329097E-2,1.12738535E-2,-5.4217458E-2,-1.1438615E-2,5.321396E-3,-4.9806263E-2],"split_indices":[10,4,11,6,1,6,9,5,0,4,0,0,0,0,0,0,0,0,0],"split_type":[0,0,0,0,0,0,0,0,0,0,0,0,0,0,0,0,0,0,0],"sum_hessian":[6.080328E1,3.511604E1,2.5687243E1,2.853876E1,6.577278E0,3.65525E0,2.2031992E1,2.66517E1,1.887061E0,3.2464452E0,3.3308332E0,1.773044E0,1.8822061E0,1.9757006E1,2.274986E0,2.2186115E1,4.465584E0,1.2935066E0,1.9529386E0],"tree_param":{"num_deleted":"0","num_feature":"12","num_nodes":"19","size_leaf_vector":"1"}},{"base_weights":[3.0047132E-2,-6.25232E-1,9.1265565E-1,-9.203101E-1,8.880504E-2,5.052178E-2,1.955593E-1,-5.083827E-2,9.998242E-3,3.9738485E-1,-4.3411285E-2,-2.9140908E-2,3.7852455E-2,-2.5119198E-2,4.3400716E-2],"categories":[],"categories_nodes":[],"categories_segments":[],"categories_sizes":[],"default_left":[0,0,0,0,0,0,0,0,0,0,0,0,0,0,0],"id":35,"left_children":[1,3,5,7,9,-1,11,-1,-1,13,-1,-1,-1,-1,-1],"loss_changes":[3.744356E1,7.9160595E0,1.7356758E0,3.0558128E0,3.8253028E0,0E0,2.429121E0,0E0,0E0,4.500184E0,0E0,0E0,0E0,0E0,0E0],"parents":[2147483647,0,0,1,1,2,2,3,3,4,4,6,6,9,9],"right_children":[2,4,6,8,10,-1,12,-1,-1,14,-1,-1,-1,-1,-1],"split_conditions":[5.002754E-1,2.630863E-1,1.6428741E0,1.6697127E0,-1.16880134E-1,5.052178E-2,3.5849303E-1,-5.083827E-2,9.998242E-3,5.5605054E-1,-4.3411285E-2,-2.9140908E-2,3.7852455E-2,-2.5119198E-2,4.3400716E-2],"split_indices":[10,3,9,6,9,0,6,0,0,1,0,0,0,0,0],"split_type":[0,0,0,0,0,0,0,0,0,0,0,0,0,0,0],"sum_hessian":[6.2754868E1,3.618298E1,2.6571888E1,2.5398207E1,1.0784773E1,2.302345E1,3.5484369E0,2.3469856E1,1.9283502E0,8.597435E0,2.1873372E0,1.471103E0,2.077334E0,2.929405E0,5.6680303E0],"tree_param":{"num_deleted":"0","num_feature":"12","num_nodes":"15","size_leaf_vector":"1"}},{"base_weights":[1.9207941E-2,-6.195062E-1,9.156578E-1,-9.206786E-1,1.0806757E-1,2.1478413E-1,5.145802E-2,-4.963257E-2,2.2166786E-3,-4.3794602E-1,3.7831113E-2,-3.2275774E-2,3.1672955E-2,9.9268295E-3,-4.417379E-2],"categories":[],"categories_nodes":[],"categories_segments":[],"categories_sizes":[],"default_left":[0,0,0,0,0,0,0,0,0,0,0,0,0,0,0],"id":36,"left_children":[1,3,5,7,9,11,-1,-1,-1,13,-1,-1,-1,-1,-1],"loss_changes":[3.4306156E1,7.770031E0,1.7613316E0,1.7708092E0,4.277308E0,2.1150627E0,0E0,0E0,0E0,2.0705495E0,0E0,0E0,0E0,0E0,0E0],"parents":[2147483647,0,0,1,1,2,2,3,3,4,4,5,5,9,9],"right_children":[2,4,6,8,10,12,-1,-1,-1,14,-1,-1,-1,-1,-1],"split_conditions":[5.002754E-1,2.630863E-1,-1.1362907E0,1.6697127E0,1.4750172E0,-5.191645E-1,5.145802E-2,-4.963257E-2,2.2166786E-3,1.3582201E0,3.7831113E-2,-3.2275774E-2,3.1672955E-2,9.9268295E-3,-4.417379E-2],"split_indices":[10,3,0,6,5,7,0,0,0,3,0,0,0,0,0],"split_type":[0,0,0,0,0,0,0,0,0,0,0,0,0,0,0],"sum_hessian":[5.792484E1,3.4005264E1,2.3919575E1,2.3862284E1,1.0142981E1,3.7368739E0,2.0182701E1,2.2179447E1,1.6828351E0,5.6831293E0,4.459851E0,1.0459121E0,2.6909618E0,2.568359E0,3.1147704E0],"tree_param":{"num_deleted":"0","num_feature":"12","num_nodes":"15","size_leaf_vector":"1"}},{"base_weights":[1.3216257E-2,-5.824723E-1,4.7049415E-1,-7.287092E-1,4.0489268E-2,-4.5813426E-2,5.705236E-1,-4.5995165E-2,-6.140858E-2,-1.03567064E-1,7.9340523E-1,-1.9592112E-2,1.9588437E-2,1.6308546E-2,-3.246015E-2,9.963133E-3,4.6877235E-2],"categories":[],"categories_nodes":[],"categories_segments":[],"categories_sizes":[],"default_left":[0,0,0,0,0,0,0,0,0,0,0,0,0,0,0,0,0],"id":37,"left_children":[1,3,5,7,-1,-1,9,-1,11,13,15,-1,-1,-1,-1,-1,-1],"loss_changes":[1.5953011E1,5.7703934E0,5.116512E0,2.9482985E0,0E0,0E0,4.8154526E0,0E0,1.099397E0,2.254731E0,1.8506727E0,0E0,0E0,0E0,0E0,0E0,0E0],"parents":[2147483647,0,0,1,1,2,2,3,3,6,6,8,8,9,9,10,10],"right_children":[2,4,6,8,-1,-1,10,-1,12,14,16,-1,-1,-1,-1,-1,-1],"split_conditions":[2.8862461E-2,1.2229052E0,-1.4505059E0,8.1877536E-1,4.0489268E-2,-4.5813426E-2,-2.0605664E-1,-4.5995165E-2,1.4750172E0,-1.7553861E-1,5.5605054E-1,-1.9592112E-2,1.9588437E-2,1.6308546E-2,-3.246015E-2,9.963133E-3,4.6877235E-2],"split_indices":[2,4,4,11,0,0,11,0,5,9,1,0,0,0,0,0,0],"split_type":[0,0,0,0,0,0,0,0,0,0,0,0,0,0,0,0,0],"sum_hessian":[5.65596E1,2.4443571E1,3.211603E1,2.255146E1,1.8921114E0,1.6117312E0,3.05043E1,1.723482E1,5.3166404E0,7.712794E0,2.2791506E1,3.152988E0,2.1636524E0,4.5396357E0,3.173158E0,4.9148674E0,1.7876638E1],"tree_param":{"num_deleted":"0","num_feature":"12","num_nodes":"17","size_leaf_vector":"1"}},{"base_weights":[-7.015914E-3,-3.7565887E-1,5.789399E-1,-5.444671E-1,4.6315856E-2,2.9954987E-2,7.205987E-1,-6.764588E-1,2.1185523E-2,-1.988194E-2,2.4070093E-2,8.4153044E-1,5.730133E-3,-4.1619837E-2,2.530542E-3,-2.0877614E-3,4.5996524E-2],"categories":[],"categories_nodes":[],"categories_segments":[],"categories_sizes":[],"default_left":[0,0,0,0,0,0,0,0,0,0,0,0,0,0,0,0,0],"id":38,"left_children":[1,3,5,7,-1,9,11,13,-1,-1,-1,15,-1,-1,-1,-1,-1],"loss_changes":[1.2429416E1,8.26465E0,1.706881E0,4.3613787E0,0E0,1.272836E0,1.1950922E0,3.267231E0,0E0,0E0,0E0,1.0448952E0,0E0,0E0,0E0,0E0,0E0],"parents":[2147483647,0,0,1,1,2,2,3,3,5,5,6,6,7,7,11,11],"right_children":[2,4,6,8,-1,10,12,14,-1,-1,-1,16,-1,-1,-1,-1,-1],"split_conditions":[8.1877536E-1,1.2229052E0,-4.670029E-1,1.6697127E0,4.6315856E-2,-5.8221657E-2,1.4577777E0,1.4750172E0,2.1185523E-2,-1.988194E-2,2.4070093E-2,-1.2979959E0,5.730133E-3,-4.1619837E-2,2.530542E-3,-2.0877614E-3,4.5996524E-2],"split_indices":[11,4,3,6,0,9,3,5,0,0,0,4,0,0,0,0,0],"split_type":[0,0,0,0,0,0,0,0,0,0,0,0,0,0,0,0,0],"sum_hessian":[5.55345E1,3.430872E1,2.122578E1,3.0885996E1,3.422722E0,4.6021295E0,1.6623652E1,2.7445639E1,3.4403582E0,2.4247174E0,2.1774123E0,1.3534126E1,3.0895243E0,2.2479494E1,4.966145E0,1.1414549E0,1.2392672E1],"tree_param":{"num_deleted":"0","num_feature":"12","num_nodes":"17","size_leaf_vector":"1"}},{"base_weights":[-4.103387E-2,-6.3534653E-1,8.1028646E-1,-8.789231E-1,-7.5534135E-2,-8.3399355E-2,4.8645776E-2,-5.1162478E-2,-4.8714224E-2,3.537728E-1,-6.443813E-1,-3.7772126E-2,3.3800617E-2,3.0570779E-2,-2.2807406E-2,-3.731234E-3,4.8899747E-2,-4.6791356E-2,5.6879753E-3],"categories":[],"categories_nodes":[],"categories_segments":[],"categories_sizes":[],"default_left":[0,0,0,0,0,0,0,0,0,0,0,0,0,0,0,0,0,0,0],"id":39,"left_children":[1,3,5,7,9,11,-1,-1,13,15,17,-1,-1,-1,-1,-1,-1,-1,-1],"loss_changes":[2.7294222E1,4.260208E0,3.3075314E0,2.588108E0,2.8444517E0,2.7250197E0,0E0,0E0,1.4382374E0,1.8784416E0,1.2029722E0,0E0,0E0,0E0,0E0,0E0,0E0,0E0,0E0],"parents":[2147483647,0,0,1,1,2,2,3,3,4,4,5,5,8,8,9,9,10,10],"right_children":[2,4,6,8,10,12,-1,-1,14,16,18,-1,-1,-1,-1,-1,-1,-1,-1],"split_conditions":[5.002754E-1,2.630863E-1,-6.99304E-1,2.4504678E-1,1.4245918E0,3.5849303E-1,4.8645776E-2,-5.1162478E-2,6.4874977E-1,7.5479835E-1,1.4750172E0,-3.7772126E-2,3.3800617E-2,3.0570779E-2,-2.2807406E-2,-3.731234E-3,4.8899747E-2,-4.6791356E-2,5.6879753E-3],"split_indices":[10,3,3,4,3,6,0,0,4,7,5,0,0,0,0,0,0,0,0],"split_type":[0,0,0,0,0,0,0,0,0,0,0,0,0,0,0,0,0,0,0],"sum_hessian":[5.1928917E1,3.0729872E1,2.1199043E1,2.1015787E1,9.714085E0,3.3387856E0,1.7860258E1,1.7705315E1,3.3104722E0,5.7515206E0,3.962564E0,1.7740567E0,1.5647289E0,1.0723641E0,2.2381082E0,3.9328775E0,1.8186432E0,2.6929605E0,1.2696036E0],"tree_param":{"num_deleted":"0","num_feature":"12","num_nodes":"19","size_leaf_vector":"1"}},{"base_weights":[-3.287026E-2,-6.0166717E-1,8.258359E-1,-8.7154025E-1,1.2896612E-1,4.6054304E-2,-5.3878822E-3,-4.7831126E-2,2.2712646E-3,-3.8495507E-2,3.6915827E-1,3.3281956E-2,-2.2474805E-2],"categories":[],"categories_nodes":[],"categories_segments":[],"categories_sizes":[],"default_left":[0,0,0,0,0,0,0,0,0,0,0,0,0],"id":40,"left_children":[1,3,5,7,9,-1,-1,-1,-1,-1,11,-1,-1],"loss_changes":[2.6998066E1,6.6620865E0,2.0592403E0,1.9459972E0,2.4067523E0,0E0,0E0,0E0,0E0,0E0,2.3462257E0,0E0,0E0],"parents":[2147483647,0,0,1,1,2,2,3,3,4,4,10,10],"right_children":[2,4,6,8,10,-1,-1,-1,-1,-1,12,-1,-1],"split_conditions":[5.002754E-1,1.0723515E0,1.8188496E0,1.6697127E0,-4.9392942E-1,4.6054304E-2,-5.3878822E-3,-4.7831126E-2,2.2712646E-3,-3.8495507E-2,-2.3419708E-1,3.3281956E-2,-2.2474805E-2],"split_indices":[10,2,9,6,10,0,0,0,0,0,9,0,0],"split_type":[0,0,0,0,0,0,0,0,0,0,0,0,0],"sum_hessian":[5.3257965E1,3.221708E1,2.1040886E1,2.3386122E1,8.830958E0,1.910508E1,1.9358058E0,2.136087E1,2.025252E0,1.3971143E0,7.4338436E0,5.5946255E0,1.8392181E0],"tree_param":{"num_deleted":"0","num_feature":"12","num_nodes":"13","size_leaf_vector":"1"}},{"base_weights":[1.5741277E-2,-4.6258527E-1,5.427112E-1,-6.760282E-1,3.169365E-2,-3.301436E-2,6.301827E-1,-7.762066E-1,3.214155E-2,7.40276E-1,1.7343456E-1,-4.457728E-2,-1.2465625E-2,1.0492694E-2,4.5271654E-2,3.309447E-2,-1.0030142E-2],"categories":[],"categories_nodes":[],"categories_segments":[],"categories_sizes":[],"default_left":[0,0,0,0,0,0,0,0,0,0,0,0,0,0,0,0,0],"id":41,"left_children":[1,3,5,7,-1,-1,9,11,-1,13,15,-1,-1,-1,-1,-1,-1],"loss_changes":[1.3402999E1,6.955822E0,3.0769353E0,3.6474152E0,0E0,0E0,1.0826731E0,1.1512003E0,0E0,1.483244E0,1.2259874E0,0E0,0E0,0E0,0E0,0E0,0E0],"parents":[2147483647,0,0,1,1,2,2,3,3,6,6,7,7,9,9,10,10],"right_children":[2,4,6,8,-1,-1,10,12,-1,14,16,-1,-1,-1,-1,-1,-1],"split_conditions":[-2.3470178E-1,1.6697127E0,-1.532544E0,1.2229052E0,3.169365E-2,-3.301436E-2,1.4577777E0,8.1877536E-1,3.214155E-2,-8.207818E-1,-5.8614796E-1,-4.457728E-2,-1.2465625E-2,1.0492694E-2,4.5271654E-2,3.309447E-2,-1.0030142E-2],"split_indices":[3,6,7,4,0,0,3,11,0,9,9,0,0,0,0,0,0],"split_type":[0,0,0,0,0,0,0,0,0,0,0,0,0,0,0,0,0],"sum_hessian":[5.1177086E1,2.6890743E1,2.4286343E1,2.2829971E1,4.060772E0,1.2023115E0,2.308403E1,2.1600676E1,1.2292962E0,1.8100407E1,4.983625E0,1.7153614E1,4.4470625E0,4.836863E0,1.3263543E1,1.8275064E0,3.1561186E0],"tree_param":{"num_deleted":"0","num_feature":"12","num_nodes":"17","size_leaf_vector":"1"}},{"base_weights":[2.4269542E-2,-3.6983916E-1,6.972352E-1,-7.438291E-1,2.0606601E-1,1.4404464E-1,4.3664057E-2,-8.6585826E-1,1.0771019E-2,-7.8042634E-3,4.2746063E-2,-7.905382E-3,3.3591762E-2,-4.846948E-2,-4.6885433E-3,1.4597857E-2,-2.5154954E-2],"categories":[],"categories_nodes":[],"categories_segments":[],"categories_sizes":[],"default_left":[0,0,0,0,0,0,0,0,0,0,0,0,0,0,0,0,0],"id":42,"left_children":[1,3,5,7,9,11,-1,13,-1,15,-1,-1,-1,-1,-1,-1,-1],"loss_changes":[1.3766373E1,7.2124405E0,1.7399406E0,2.5379333E0,1.9060464E0,1.0347495E0,0E0,1.349535E0,0E0,1.8223753E0,0E0,0E0,0E0,0E0,0E0,0E0,0E0],"parents":[2147483647,0,0,1,1,2,2,3,3,4,4,5,5,7,7,9,9],"right_children":[2,4,6,8,10,12,-1,14,-1,16,-1,-1,-1,-1,-1,-1,-1],"split_conditions":[8.1877536E-1,-2.3470178E-1,-4.670029E-1,1.6697127E0,1.6697127E0,1.6697127E0,4.3664057E-2,1.4750172E0,1.0771019E-2,1.3914059E0,4.2746063E-2,-7.905382E-3,3.3591762E-2,-4.846948E-2,-4.6885433E-3,1.4597857E-2,-2.5154954E-2],"split_indices":[11,3,3,6,6,6,0,5,0,3,0,0,0,0,0,0,0],"split_type":[0,0,0,0,0,0,0,0,0,0,0,0,0,0,0,0,0],"sum_hessian":[4.99329E1,3.177497E1,1.8157932E1,1.9087841E1,1.2687129E1,4.8224683E0,1.3335464E1,1.7020027E1,2.0678132E0,1.0285034E1,2.4020953E0,3.5122132E0,1.310255E0,1.4782287E1,2.2377403E0,6.6630025E0,3.6220312E0],"tree_param":{"num_deleted":"0","num_feature":"12","num_nodes":"17","size_leaf_vector":"1"}},{"base_weights":[4.3518845E-2,-4.941707E-1,7.832699E-1,-7.870634E-1,2.737112E-1,-6.8379496E-3,9.3425506E-1,-4.9882725E-2,-1.1927309E-1,-3.641554E-2,5.403515E-1,3.283055E-2,-2.3310978E-2,5.109313E-2,4.754429E-3,1.8317996E-2,-4.1177616E-2,-1.5234117E-2,4.369877E-2],"categories":[],"categories_nodes":[],"categories_segments":[],"categories_sizes":[],"default_left":[0,0,0,0,0,0,0,0,0,0,0,0,0,0,0,0,0,0,0],"id":43,"left_children":[1,3,5,7,9,11,13,-1,15,-1,17,-1,-1,-1,-1,-1,-1,-1,-1],"loss_changes":[2.0396643E1,6.9052515E0,2.5785284E0,2.945343E0,2.786104E0,1.6629694E0,1.2341833E0,0E0,2.4769397E0,0E0,2.4221172E0,0E0,0E0,0E0,0E0,0E0,0E0,0E0,0E0],"parents":[2147483647,0,0,1,1,2,2,3,3,4,4,5,5,6,6,8,8,10,10],"right_children":[2,4,6,8,10,12,14,-1,16,-1,18,-1,-1,-1,-1,-1,-1,-1,-1],"split_conditions":[5.002754E-1,1.0723515E0,-2.0605664E-1,1.4750172E0,-4.9392942E-1,-4.1017252E-1,1.8188496E0,-4.9882725E-2,3.723438E-1,-3.641554E-2,-7.797478E-1,3.283055E-2,-2.3310978E-2,5.109313E-2,4.754429E-3,1.8317996E-2,-4.1177616E-2,-1.5234117E-2,4.369877E-2],"split_indices":[10,2,11,5,10,9,9,0,0,0,7,0,0,0,0,0,0,0,0],"split_type":[0,0,0,0,0,0,0,0,0,0,0,0,0,0,0,0,0,0,0],"sum_hessian":[4.93061E1,2.8744835E1,2.0561266E1,2.0789955E1,7.9548798E0,3.4519365E0,1.710933E1,1.5430048E1,5.359907E0,1.3080088E0,6.646871E0,1.2366307E0,2.2153058E0,1.529486E1,1.8144685E0,3.4563816E0,1.9035258E0,1.9059784E0,4.740893E0],"tree_param":{"num_deleted":"0","num_feature":"12","num_nodes":"19","size_leaf_vector":"1"}},{"base_weights":[-9.104782E-2,-6.8803114E-1,7.595346E-1,-5.0897207E-2,-2.6108888E-1,4.608851E-2,-1.0866439E-1,-6.9758815E-1,2.0079306E-1,-3.770311E-2,3.1869475E-2,-4.5655992E-2,7.725311E-3,-4.6148576E-2,5.2235544E-2],"categories":[],"categories_nodes":[],"categories_segments":[],"categories_sizes":[],"default_left":[0,0,0,0,0,0,0,0,0,0,0,0,0,0,0],"id":44,"left_children":[1,3,5,-1,7,-1,9,11,13,-1,-1,-1,-1,-1,-1],"loss_changes":[2.4151512E1,3.6594744E0,2.8701658E0,0E0,2.8602924E0,0E0,2.4022205E0,1.4560988E0,7.9177427E0,0E0,0E0,0E0,0E0,0E0,0E0],"parents":[2147483647,0,0,1,1,2,2,4,4,6,6,7,7,8,8],"right_children":[2,4,6,-1,8,-1,10,12,14,-1,-1,-1,-1,-1,-1],"split_conditions":[5.002754E-1,2.8862461E-2,1.6428741E0,-5.0897207E-2,-2.3470178E-1,4.608851E-2,-2.6788765E-1,8.1877536E-1,5.5605054E-1,-3.770311E-2,3.1869475E-2,-4.5655992E-2,7.725311E-3,-4.6148576E-2,5.2235544E-2],"split_indices":[10,2,9,0,3,0,3,11,1,0,0,0,0,0,0],"split_type":[0,0,0,0,0,0,0,0,0,0,0,0,0,0,0],"sum_hessian":[4.5533474E1,2.6867537E1,1.8665937E1,1.4375118E1,1.2492418E1,1.5675112E1,2.9908261E0,6.1603203E0,6.3320975E0,1.5978342E0,1.392992E0,4.859519E0,1.3008014E0,2.6755924E0,3.656505E0],"tree_param":{"num_deleted":"0","num_feature":"12","num_nodes":"15","size_leaf_vector":"1"}},{"base_weights":[-3.113193E-2,-5.2276915E-1,7.135199E-1,-8.488653E-1,8.959317E-3,-3.0382307E-2,4.354557E-2,-4.728317E-2,1.9204183E-2,3.610318E-1,-4.471673E-2,-5.8226317E-2,3.77441E-2,-3.4860667E-2,2.9062102E-2],"categories":[],"categories_nodes":[],"categories_segments":[],"categories_sizes":[],"default_left":[0,0,0,0,0,0,0,0,0,0,0,0,0,0,0],"id":45,"left_children":[1,3,5,7,9,11,-1,-1,-1,13,-1,-1,-1,-1,-1],"loss_changes":[1.8139896E1,5.1762123E0,2.3355894E0,2.569623E0,4.2412663E0,4.806918E0,0E0,0E0,0E0,2.6372566E0,0E0,0E0,0E0,0E0,0E0],"parents":[2147483647,0,0,1,1,2,2,3,3,4,4,5,5,9,9],"right_children":[2,4,6,8,10,12,-1,-1,-1,14,-1,-1,-1,-1,-1],"split_conditions":[5.002754E-1,-2.3470178E-1,-6.99304E-1,1.2049628E0,-1.16880134E-1,1.0723515E0,4.354557E-2,-4.728317E-2,1.9204183E-2,-4.9392942E-1,-4.471673E-2,-5.8226317E-2,3.77441E-2,-3.4860667E-2,2.9062102E-2],"split_indices":[10,3,3,4,9,2,0,0,0,10,0,0,0,0,0],"split_type":[0,0,0,0,0,0,0,0,0,0,0,0,0,0,0],"sum_hessian":[4.753035E1,2.8808346E1,1.8722002E1,1.7487352E1,1.1320994E1,3.4103136E0,1.5311688E1,1.6430418E1,1.0569348E0,8.577931E0,2.7430625E0,1.1976272E0,2.2126865E0,1.104415E0,7.4735165E0],"tree_param":{"num_deleted":"0","num_feature":"12","num_nodes":"15","size_leaf_vector":"1"}},{"base_weights":[2.7321108E-2,-5.3949726E-1,8.7439555E-1,-6.273217E-1,3.761613E-2,2.1059176E-1,5.07736E-2,-4.4958636E-2,-1.847175E-1,-1.713567E-2,3.4882307E-2,1.2855872E-2,-3.2416362E-2],"categories":[],"categories_nodes":[],"categories_segments":[],"categories_sizes":[],"default_left":[0,0,0,0,0,0,0,0,0,0,0,0,0],"id":46,"left_children":[1,3,5,7,-1,9,-1,-1,11,-1,-1,-1,-1],"loss_changes":[2.263925E1,3.6802616E0,1.5551796E0,3.0854836E0,0E0,1.4713835E0,0E0,0E0,2.5307746E0,0E0,0E0,0E0,0E0],"parents":[2147483647,0,0,1,1,2,2,3,3,5,5,8,8],"right_children":[2,4,6,8,-1,10,-1,-1,12,-1,-1,-1,-1],"split_conditions":[5.002754E-1,1.2229052E0,-6.99304E-1,-2.3470178E-1,3.761613E-2,3.5849303E-1,5.07736E-2,-4.4958636E-2,-6.4480644E-1,-1.713567E-2,3.4882307E-2,1.2855872E-2,-3.2416362E-2],"split_indices":[10,4,3,3,0,6,0,0,9,0,0,0,0],"split_type":[0,0,0,0,0,0,0,0,0,0,0,0,0],"sum_hessian":[4.516911E1,2.7278711E1,1.7890398E1,2.6023869E1,1.2548444E0,3.5726824E0,1.4317715E1,1.5482712E1,1.0541156E1,1.8113271E0,1.7613553E0,5.625385E0,4.915771E0],"tree_param":{"num_deleted":"0","num_feature":"12","num_nodes":"13","size_leaf_vector":"1"}},{"base_weights":[1.55866835E-2,-4.6384156E-1,7.05139E-1,-7.010661E-1,3.410414E-1,2.7952742E-2,4.271657E-2,-8.019849E-1,2.204851E-2,-4.7652704E-1,5.4136705E-2,-5.615419E-2,3.894433E-2,-2.1417871E-2,-5.0328523E-2,1.4139007E-2,-4.198954E-2],"categories":[],"categories_nodes":[],"categories_segments":[],"categories_sizes":[],"default_left":[0,0,0,0,0,0,0,0,0,0,0,0,0,0,0,0,0],"id":47,"left_children":[1,3,5,7,9,11,-1,13,-1,15,-1,-1,-1,-1,-1,-1,-1],"loss_changes":[1.5620198E1,5.5645075E0,1.9330072E0,2.8741217E0,4.773851E0,4.790866E0,0E0,1.1318645E0,0E0,1.3502893E0,0E0,0E0,0E0,0E0,0E0,0E0,0E0],"parents":[2147483647,0,0,1,1,2,2,3,3,4,4,5,5,7,7,9,9],"right_children":[2,4,6,8,10,12,-1,14,-1,16,-1,-1,-1,-1,-1,-1,-1],"split_conditions":[5.002754E-1,3.2578737E-1,-6.99304E-1,1.6697127E0,5.5605054E-1,1.0723515E0,4.271657E-2,-7.0346487E-1,2.204851E-2,7.2051924E-1,5.4136705E-2,-5.615419E-2,3.894433E-2,-2.1417871E-2,-5.0328523E-2,1.4139007E-2,-4.198954E-2],"split_indices":[10,4,3,6,1,2,0,9,0,4,0,0,0,0,0,0,0],"split_type":[0,0,0,0,0,0,0,0,0,0,0,0,0,0,0,0,0],"sum_hessian":[4.5259983E1,2.6890812E1,1.8369171E1,2.086903E1,6.02178E0,3.530689E0,1.4838482E1,1.9448202E1,1.4208294E0,3.0344348E0,2.9873455E0,1.198317E0,2.3323717E0,7.9758897E0,1.1472312E1,1.0536383E0,1.9807965E0],"tree_param":{"num_deleted":"0","num_feature":"12","num_nodes":"17","size_leaf_vector":"1"}},{"base_weights":[-2.1563709E-2,-6.118666E-1,8.519661E-1,-7.178949E-1,1.598697E-2,4.8006725E-2,1.7364031E-1,-1.1521475E-1,-8.611786E-1,-2.0486005E-2,3.188865E-2,9.856502E-3,-3.7171878E-2,3.5200014E-3,-4.5834687E-2],"categories":[],"categories_nodes":[],"categories_segments":[],"categories_sizes":[],"default_left":[0,0,0,0,0,0,0,0,0,0,0,0,0,0,0],"id":48,"left_children":[1,3,5,7,-1,-1,9,11,13,-1,-1,-1,-1,-1,-1],"loss_changes":[2.2929287E1,2.848508E0,1.1497478E0,1.9830303E0,0E0,0E0,1.2599628E0,1.2819002E0,1.0640574E0,0E0,0E0,0E0,0E0,0E0,0E0],"parents":[2147483647,0,0,1,1,2,2,3,3,6,6,7,7,8,8],"right_children":[2,4,6,8,-1,-1,10,12,14,-1,-1,-1,-1,-1,-1],"split_conditions":[5.002754E-1,1.6697127E0,1.7015326E0,-1.2313912E0,1.598697E-2,4.8006725E-2,3.5849303E-1,1.0443354E0,-1.5832934E0,-2.0486005E-2,3.188865E-2,9.856502E-3,-3.7171878E-2,3.5200014E-3,-4.5834687E-2],"split_indices":[10,6,9,9,0,0,6,7,0,0,0,0,0,0,0],"split_type":[0,0,0,0,0,0,0,0,0,0,0,0,0,0,0],"sum_hessian":[4.2456066E1,2.551405E1,1.6942015E1,2.3112915E1,2.4011354E0,1.4253631E1,2.6883836E0,4.7860255E0,1.8326889E1,1.2431388E0,1.4452448E0,3.655009E0,1.1310164E0,1.0156435E0,1.7311247E1],"tree_param":{"num_deleted":"0","num_feature":"12","num_nodes":"15","size_leaf_vector":"1"}},{"base_weights":[-1.8448092E-2,-3.2445836E-1,4.9742603E-1,-4.74509E-1,4.181356E-2,-3.937037E-3,6.8726456E-1,-6.297477E-1,2.191095E-2,-3.2460296E-3,4.1618526E-2,-3.9172325E-2,1.1519517E-3],"categories":[],"categories_nodes":[],"categories_segments":[],"categories_sizes":[],"default_left":[0,0,0,0,0,0,0,0,0,0,0,0,0],"id":49,"left_children":[1,3,5,7,-1,-1,9,11,-1,-1,-1,-1,-1],"loss_changes":[7.095079E0,5.303833E0,1.8860145E0,3.901379E0,0E0,0E0,1.4402347E0,2.2532425E0,0E0,0E0,0E0,0E0,0E0],"parents":[2147483647,0,0,1,1,2,2,3,3,6,6,7,7],"right_children":[2,4,6,8,-1,-1,10,12,-1,-1,-1,-1,-1],"split_conditions":[8.1877536E-1,1.2229052E0,5.5605054E-1,1.6697127E0,4.181356E-2,-3.937037E-3,-5.0018877E-1,1.4750172E0,2.191095E-2,-3.2460296E-3,4.1618526E-2,-3.9172325E-2,1.1519517E-3],"split_indices":[11,4,1,6,0,0,3,5,0,0,0,0,0],"split_type":[0,0,0,0,0,0,0,0,0,0,0,0,0],"sum_hessian":[4.292223E1,2.7173998E1,1.5748234E1,2.4586794E1,2.5872037E0,4.047908E0,1.1700326E1,2.127785E1,3.3089435E0,1.981489E0,9.718837E0,1.7060738E1,4.217111E0],"tree_param":{"num_deleted":"0","num_feature":"12","num_nodes":"13","size_leaf_vector":"1"}},{"base_weights":[3.520489E-2,-4.5951617E-1,7.598919E-1,-4.4772487E-2,8.1679165E-2,4.42379E-2,7.486787E-2,3.5589123E-1,-3.5643253E-2,-2.3006469E-2,3.047737E-2,-2.03595E-2,3.52939E-2],"categories":[],"categories_nodes":[],"categories_segments":[],"categories_sizes":[],"default_left":[0,0,0,0,0,0,0,0,0,0,0,0,0],"id":50,"left_children":[1,3,5,-1,7,-1,9,11,-1,-1,-1,-1,-1],"loss_changes":[1.5429727E1,6.1178493E0,1.4257069E0,0E0,2.9437933E0,0E0,1.3622141E0,2.9170172E0,0E0,0E0,0E0,0E0,0E0],"parents":[2147483647,0,0,1,1,2,2,4,4,6,6,7,7],"right_children":[2,4,6,-1,8,-1,10,12,-1,-1,-1,-1,-1],"split_conditions":[5.002754E-1,2.8862461E-2,1.6428741E0,-4.4772487E-2,-1.7553861E-1,4.42379E-2,-6.334125E-1,5.5605054E-1,-3.5643253E-2,-2.3006469E-2,3.047737E-2,-2.03595E-2,3.52939E-2],"split_indices":[10,2,9,0,9,0,0,1,0,0,0,0,0],"split_type":[0,0,0,0,0,0,0,0,0,0,0,0,0],"sum_hessian":[4.1063572E1,2.4621296E1,1.6442274E1,1.3274274E1,1.1347023E1,1.3660643E1,2.7816317E0,8.846137E0,2.500886E0,1.4600967E0,1.3215349E0,2.7301362E0,6.1160007E0],"tree_param":{"num_deleted":"0","num_feature":"12","num_nodes":"13","size_leaf_vector":"1"}},{"base_weights":[-3.979969E-3,-3.4873945E-1,5.2646446E-1,-6.3557476E-1,2.25349E-1,-1.08637206E-1,7.792772E-1,-5.3579297E-2,-6.626091E-4,4.4427074E-2,-3.9224412E-2,-2.294681E-2,2.4349086E-2,4.400523E-2,-3.989763E-3,-1.2424785E-2,3.1456824E-2],"categories":[],"categories_nodes":[],"categories_segments":[],"categories_sizes":[],"default_left":[0,0,0,0,0,0,0,0,0,0,0,0,0,0,0,0,0],"id":51,"left_children":[1,3,5,7,9,11,13,-1,-1,-1,15,-1,-1,-1,-1,-1,-1],"loss_changes":[7.7445745E0,4.3686094E0,2.7636318E0,4.6996417E0,1.664447E0,1.3978107E0,1.1145554E0,0E0,0E0,0E0,1.2188649E0,0E0,0E0,0E0,0E0,0E0,0E0],"parents":[2147483647,0,0,1,1,2,2,3,3,4,4,5,5,6,6,10,10],"right_children":[2,4,6,8,10,12,14,-1,-1,-1,16,-1,-1,-1,-1,-1,-1],"split_conditions":[8.1877536E-1,1.0723515E0,5.5605054E-1,-2.6788765E-1,-5.997464E-1,-4.68831E-1,1.3781002E0,-5.3579297E-2,-6.626091E-4,4.4427074E-2,1.6697127E0,-2.294681E-2,2.4349086E-2,4.400523E-2,-3.989763E-3,-1.2424785E-2,3.1456824E-2],"split_indices":[11,2,1,3,3,9,0,0,0,0,6,0,0,0,0,0,0],"split_type":[0,0,0,0,0,0,0,0,0,0,0,0,0,0,0,0,0],"sum_hessian":[4.034488E1,2.465988E1,1.5685001E1,1.6372488E1,8.287391E0,4.62831E0,1.1056691E1,9.202869E0,7.169619E0,1.6907876E0,6.596603E0,3.0588193E0,1.569491E0,9.873391E0,1.1832998E0,5.5020504E0,1.0945524E0],"tree_param":{"num_deleted":"0","num_feature":"12","num_nodes":"17","size_leaf_vector":"1"}},{"base_weights":[5.7070464E-2,-4.1730437E-1,6.953523E-1,-7.7163005E-1,2.698928E-1,-5.9844195E-3,4.3987725E-2,-4.9919877E-2,6.273412E-3,3.8918514E-2,-2.0202959E-1,-2.3069195E-2,3.7930213E-2,-2.6557619E-2,1.5683856E-2],"categories":[],"categories_nodes":[],"categories_segments":[],"categories_sizes":[],"default_left":[0,0,0,0,0,0,0,0,0,0,0,0,0,0,0],"id":52,"left_children":[1,3,5,7,9,-1,-1,-1,11,-1,13,-1,-1,-1,-1],"loss_changes":[1.234197E1,5.9201474E0,2.7121534E0,2.7823029E0,2.2500477E0,0E0,0E0,0E0,1.9493641E0,0E0,1.0691035E0,0E0,0E0,0E0,0E0],"parents":[2147483647,0,0,1,1,2,2,3,3,4,4,8,8,10,10],"right_children":[2,4,6,8,10,-1,-1,-1,12,-1,14,-1,-1,-1,-1],"split_conditions":[5.002754E-1,2.630863E-1,-2.0605664E-1,1.0723515E0,1.0595472E0,-5.9844195E-3,4.3987725E-2,-4.9919877E-2,2.1813324E-1,3.8918514E-2,1.4750172E0,-2.3069195E-2,3.7930213E-2,-2.6557619E-2,1.5683856E-2],"split_indices":[10,3,11,2,3,0,0,0,4,0,5,0,0,0,0],"split_type":[0,0,0,0,0,0,0,0,0,0,0,0,0,0,0],"sum_hessian":[3.880317E1,2.2458261E1,1.6344906E1,1.4736903E1,7.7213583E0,3.0804667E0,1.326444E1,1.1191121E1,3.5457826E0,3.404156E0,4.317202E0,2.4250631E0,1.1207193E0,2.617054E0,1.7001483E0],"tree_param":{"num_deleted":"0","num_feature":"12","num_nodes":"15","size_leaf_vector":"1"}},{"base_weights":[-4.3471478E-2,-4.949199E-1,6.348314E-1,-7.342405E-1,1.1949452E-2,-1.17361635E-1,4.2586822E-2,-4.658365E-2,-7.44537E-3,5.435677E-1,-4.6998093E-1,-3.219039E-2,2.560462E-1,-1.0316038E-2,4.1275956E-2,-3.9642353E-2,1.6013486E-2,3.323953E-2,-1.7563572E-2],"categories":[],"categories_nodes":[],"categories_segments":[],"categories_sizes":[],"default_left":[0,0,0,0,0,0,0,0,0,0,0,0,0,0,0,0,0,0,0],"id":53,"left_children":[1,3,5,7,9,11,-1,-1,-1,13,15,-1,17,-1,-1,-1,-1,-1,-1],"loss_changes":[1.24887295E1,2.9725323E0,2.7634945E0,1.7810564E0,2.5151863E0,1.055905E0,0E0,0E0,0E0,1.1550711E0,1.5711154E0,0E0,1.0694185E0,0E0,0E0,0E0,0E0,0E0,0E0],"parents":[2147483647,0,0,1,1,2,2,3,3,4,4,5,5,9,9,10,10,12,12],"right_children":[2,4,6,8,10,12,-1,-1,-1,14,16,-1,18,-1,-1,-1,-1,-1,-1],"split_conditions":[5.002754E-1,2.630863E-1,-2.0605664E-1,8.1877536E-1,1.2918483E0,-1.02454E0,4.2586822E-2,-4.658365E-2,-7.44537E-3,-2.2962749E-1,1.4750172E0,-3.219039E-2,2.6059312E-1,-1.0316038E-2,4.1275956E-2,-3.9642353E-2,1.6013486E-2,3.323953E-2,-1.7563572E-2],"split_indices":[10,3,11,11,3,0,0,0,0,7,5,0,0,0,0,0,0,0,0],"split_type":[0,0,0,0,0,0,0,0,0,0,0,0,0,0,0,0,0,0,0],"sum_hessian":[3.875765E1,2.3432423E1,1.5325228E1,1.5612386E1,7.8200364E0,3.5328336E0,1.1792395E1,1.1232106E1,4.3802795E0,3.6575212E0,4.162515E0,1.165509E0,2.3673246E0,1.0727185E0,2.5848026E0,2.9528205E0,1.2096946E0,1.3584261E0,1.0088986E0],"tree_param":{"num_deleted":"0","num_feature":"12","num_nodes":"19","size_leaf_vector":"1"}},{"base_weights":[-2.5265072E-2,-4.6940866E-1,6.2644094E-1,-4.44265E-2,-1.2795578E-1,-1.410608E-2,8.556502E-1,1.9239876E-1,-4.4002246E-2,4.8272695E-2,3.5422188E-3,-3.7277263E-2,2.5064642E-2],"categories":[],"categories_nodes":[],"categories_segments":[],"categories_sizes":[],"default_left":[0,0,0,0,0,0,0,0,0,0,0,0,0],"id":54,"left_children":[1,3,5,-1,7,-1,9,11,-1,-1,-1,-1,-1],"loss_changes":[1.1512174E1,3.2666135E0,3.601779E0,0E0,3.5868444E0,0E0,1.0633736E0,3.4934769E0,0E0,0E0,0E0,0E0,0E0],"parents":[2147483647,0,0,1,1,2,2,4,4,6,6,7,7],"right_children":[2,4,6,-1,8,-1,10,12,-1,-1,-1,-1,-1],"split_conditions":[5.002754E-1,-2.0067379E-1,-2.0605664E-1,-4.44265E-2,-1.16880134E-1,-1.410608E-2,1.8188496E0,-4.9392942E-1,-4.4002246E-2,4.8272695E-2,3.5422188E-3,-3.7277263E-2,2.5064642E-2],"split_indices":[10,7,11,0,9,0,9,10,0,0,0,0,0],"split_type":[0,0,0,0,0,0,0,0,0,0,0,0,0],"sum_hessian":[3.7756523E1,2.2620302E1,1.5136219E1,9.4358835E0,1.3184419E1,3.002754E0,1.2133466E1,9.767924E0,3.4164948E0,1.0442284E1,1.6911821E0,2.0697176E0,7.6982064E0],"tree_param":{"num_deleted":"0","num_feature":"12","num_nodes":"13","size_leaf_vector":"1"}},{"base_weights":[8.725887E-3,-4.3508348E-1,7.059089E-1,-4.1847643E-2,-1.08774165E-2,-1.0253187E-2,4.5500796E-2,-4.0488567E-2,2.066596E-1,-3.1582605E-2,1.9479735E-2],"categories":[],"categories_nodes":[],"categories_segments":[],"categories_sizes":[],"default_left":[0,0,0,0,0,0,0,0,0,0,0],"id":55,"left_children":[1,3,5,-1,7,-1,-1,-1,9,-1,-1],"loss_changes":[1.19651375E1,4.02107E0,2.982461E0,0E0,2.3421333E0,0E0,0E0,0E0,1.876635E0,0E0,0E0],"parents":[2147483647,0,0,1,1,2,2,4,4,8,8],"right_children":[2,4,6,-1,8,-1,-1,-1,10,-1,-1],"split_conditions":[5.002754E-1,2.8862461E-2,-2.0605664E-1,-4.1847643E-2,-1.1271923E0,-1.0253187E-2,4.5500796E-2,-4.0488567E-2,-4.9392942E-1,-3.1582605E-2,1.9479735E-2],"split_indices":[10,2,11,0,7,0,0,0,10,0,0],"split_type":[0,0,0,0,0,0,0,0,0,0,0],"sum_hessian":[3.6677418E1,2.2640793E1,1.4036625E1,1.1126848E1,1.1513946E1,2.5684423E0,1.1468183E1,1.8815593E0,9.632386E0,1.2860595E0,8.346327E0],"tree_param":{"num_deleted":"0","num_feature":"12","num_nodes":"11","size_leaf_vector":"1"}},{"base_weights":[3.191013E-2,-4.1848794E-1,7.034152E-1,-5.575261E-1,4.0689077E-2,4.227258E-2,-1.676875E-2,-4.4898417E-2,-5.786382E-2,-2.6645321E-2,2.7828354E-2,-3.4738448E-2,1.4043504E-2],"categories":[],"categories_nodes":[],"categories_segments":[],"categories_sizes":[],"default_left":[0,0,0,0,0,0,0,0,0,0,0,0,0],"id":56,"left_children":[1,3,5,7,-1,-1,9,-1,11,-1,-1,-1,-1],"loss_changes":[1.1025537E1,4.199731E0,1.5094194E0,3.3911052E0,0E0,0E0,1.2993282E0,0E0,2.1953151E0,0E0,0E0,0E0,0E0],"parents":[2147483647,0,0,1,1,2,2,3,3,6,6,8,8],"right_children":[2,4,6,8,-1,-1,10,-1,12,-1,-1,-1,-1],"split_conditions":[5.002754E-1,1.2229052E0,1.6428741E0,-2.3470178E-1,4.0689077E-2,4.227258E-2,-2.6788765E-1,-4.4898417E-2,5.5605054E-1,-2.6645321E-2,2.7828354E-2,-3.4738448E-2,1.4043504E-2],"split_indices":[10,4,9,3,0,0,3,0,1,0,0,0,0],"split_type":[0,0,0,0,0,0,0,0,0,0,0,0,0],"sum_hessian":[3.4481426E1,2.0864073E1,1.36173525E1,1.9240688E1,1.6233846E0,1.1228837E1,2.3885157E0,1.0969518E1,8.271172E0,1.2940663E0,1.0944493E0,2.5067582E0,5.7644134E0],"tree_param":{"num_deleted":"0","num_feature":"12","num_nodes":"13","size_leaf_vector":"1"}},{"base_weights":[5.388157E-3,-3.8172856E-1,5.8477855E-1,-6.617023E-1,3.1626472E-1,-9.705226E-3,8.195354E-1,-4.5996275E-2,-6.9711015E-2,5.6646544E-1,-1.7599551E-2,4.7342394E-2,-4.218054E-3,1.8862477E-2,-3.7568524E-2,-4.171077E-3,4.2436805E-2],"categories":[],"categories_nodes":[],"categories_segments":[],"categories_sizes":[],"default_left":[0,0,0,0,0,0,0,0,0,0,0,0,0,0,0,0,0],"id":57,"left_children":[1,3,5,7,9,-1,11,-1,13,15,-1,-1,-1,-1,-1,-1,-1],"loss_changes":[8.26315E0,4.526777E0,2.8565145E0,2.3957763E0,1.3700385E0,0E0,1.4063997E0,0E0,2.102167E0,1.0756139E0,0E0,0E0,0E0,0E0,0E0,0E0,0E0],"parents":[2147483647,0,0,1,1,2,2,3,3,4,4,6,6,8,8,9,9],"right_children":[2,4,6,8,10,-1,12,-1,14,16,-1,-1,-1,-1,-1,-1,-1],"split_conditions":[5.002754E-1,1.0723515E0,-2.0605664E-1,2.630863E-1,-3.5151404E-1,-9.705226E-3,1.8188496E0,-4.5996275E-2,3.723438E-1,-5.775371E-1,-1.7599551E-2,4.7342394E-2,-4.218054E-3,1.8862477E-2,-3.7568524E-2,-4.171077E-3,4.2436805E-2],"split_indices":[10,2,11,3,9,0,9,0,0,0,0,0,0,0,0,0,0],"split_type":[0,0,0,0,0,0,0,0,0,0,0,0,0,0,0,0,0],"sum_hessian":[3.4845833E1,2.1093483E1,1.3752349E1,1.5091921E1,6.0015626E0,3.2251203E0,1.0527228E1,1.0122565E1,4.9693556E0,4.4774785E0,1.5240842E0,9.185891E0,1.3413376E0,3.2710905E0,1.6982651E0,1.569166E0,2.9083123E0],"tree_param":{"num_deleted":"0","num_feature":"12","num_nodes":"17","size_leaf_vector":"1"}},{"base_weights":[2.3183146E-2,-3.9037806E-1,4.3284443E-1,-6.758884E-1,2.699416E-1,-1.086207E-1,6.228843E-1,-4.1408874E-2,1.9544885E-2,-1.1904059E-1,3.8858514E-2,1.5506871E-2,-4.468077E-2,-5.764935E-3,3.715099E-2,-2.8815025E-2,1.8899346E-2],"categories":[],"categories_nodes":[],"categories_segments":[],"categories_sizes":[],"default_left":[0,0,0,0,0,0,0,0,0,0,0,0,0,0,0,0,0],"id":58,"left_children":[1,3,5,7,9,11,13,-1,-1,15,-1,-1,-1,-1,-1,-1,-1],"loss_changes":[5.8739915E0,3.4407706E0,1.8571789E0,2.3303185E0,1.2628496E0,2.0422337E0,1.2404275E0,0E0,0E0,1.177898E0,0E0,0E0,0E0,0E0,0E0,0E0,0E0],"parents":[2147483647,0,0,1,1,2,2,3,3,4,4,5,5,6,6,9,9],"right_children":[2,4,6,8,10,12,14,-1,-1,16,-1,-1,-1,-1,-1,-1,-1],"split_conditions":[-2.3470178E-1,2.4504678E-1,5.5605054E-1,1.6697127E0,5.5605054E-1,1.042848E0,-2.0605664E-1,-4.1408874E-2,1.9544885E-2,3.5849303E-1,3.8858514E-2,1.5506871E-2,-4.468077E-2,-5.764935E-3,3.715099E-2,-2.8815025E-2,1.8899346E-2],"split_indices":[3,4,1,6,1,0,11,0,0,6,0,0,0,0,0,0,0],"split_type":[0,0,0,0,0,0,0,0,0,0,0,0,0,0,0,0,0],"sum_hessian":[3.267382E1,1.628294E1,1.639088E1,1.13512745E1,4.931665E0,4.3695383E0,1.2021341E1,1.0128983E1,1.222292E0,3.2243195E0,1.7073456E0,3.2439566E0,1.125582E0,1.6882162E0,1.0333125E1,1.5962722E0,1.6280472E0],"tree_param":{"num_deleted":"0","num_feature":"12","num_nodes":"17","size_leaf_vector":"1"}},{"base_weights":[-2.0501688E-2,-4.575924E-1,5.89848E-1,-7.023545E-1,2.4520876E-1,-1.5097103E-1,8.1800014E-1,-4.3788176E-2,-8.093168E-3,-2.5793036E-2,4.9555328E-2,2.877603E-2,-2.7810657E-2,4.711261E-2,5.374291E-4,-2.7071675E-2,2.591517E-2],"categories":[],"categories_nodes":[],"categories_segments":[],"categories_sizes":[],"default_left":[0,0,0,0,0,0,0,0,0,0,0,0,0,0,0,0,0],"id":59,"left_children":[1,3,5,7,9,11,13,-1,15,-1,-1,-1,-1,-1,-1,-1,-1],"loss_changes":[9.410967E0,3.703661E0,2.614047E0,1.8571987E0,3.9423826E0,1.590099E0,1.1354852E0,0E0,1.4328595E0,0E0,0E0,0E0,0E0,0E0,0E0,0E0,0E0],"parents":[2147483647,0,0,1,1,2,2,3,3,4,4,5,5,6,6,8,8],"right_children":[2,4,6,8,10,12,14,-1,16,-1,-1,-1,-1,-1,-1,-1,-1],"split_conditions":[5.002754E-1,3.2578737E-1,-2.0605664E-1,1.4750172E0,5.5605054E-1,-4.1017252E-1,1.8188496E0,-4.3788176E-2,2.8862461E-2,-2.5793036E-2,4.9555328E-2,2.877603E-2,-2.7810657E-2,4.711261E-2,5.374291E-4,-2.7071675E-2,2.591517E-2],"split_indices":[10,4,11,5,1,9,9,0,2,0,0,0,0,0,0,0,0],"split_type":[0,0,0,0,0,0,0,0,0,0,0,0,0,0,0,0,0],"sum_hessian":[3.3264637E1,1.9529337E1,1.3735298E1,1.4485247E1,5.0440903E0,3.313741E0,1.0421557E1,1.1381103E1,3.1041448E0,2.6493027E0,2.3947875E0,1.0360996E0,2.2776413E0,8.886512E0,1.5350455E0,1.5277134E0,1.5764314E0],"tree_param":{"num_deleted":"0","num_feature":"12","num_nodes":"17","size_leaf_vector":"1"}},{"base_weights":[-1.41124725E-2,-4.44186E-1,6.5569323E-1,-7.401034E-1,3.1914417E-2,8.189995E-4,4.0519234E-2,-4.6004876E-2,1.1188826E-3,-3.2202978E-2,4.8411167E-1,4.0059526E-2,-6.235457E-3],"categories":[],"categories_nodes":[],"categories_segments":[],"categories_sizes":[],"default_left":[0,0,0,0,0,0,0,0,0,0,0,0,0],"id":60,"left_children":[1,3,5,7,9,-1,-1,-1,-1,-1,11,-1,-1],"loss_changes":[1.0157386E1,3.0461283E0,1.3511086E0,1.8420172E0,3.1184533E0,0E0,0E0,0E0,0E0,0E0,1.2721678E0,0E0,0E0],"parents":[2147483647,0,0,1,1,2,2,3,3,4,4,10,10],"right_children":[2,4,6,8,10,-1,-1,-1,-1,-1,12,-1,-1],"split_conditions":[5.002754E-1,2.630863E-1,-2.0605664E-1,2.4504678E-1,5.5605054E-1,8.189995E-4,4.0519234E-2,-4.6004876E-2,1.1188826E-3,-3.2202978E-2,1.3914059E0,4.0059526E-2,-6.235457E-3],"split_indices":[10,3,11,4,1,0,0,0,0,0,3,0,0],"split_type":[0,0,0,0,0,0,0,0,0,0,0,0,0],"sum_hessian":[3.3249603E1,2.0453512E1,1.2796091E1,1.2271638E1,8.181874E0,2.708443E0,1.0087647E1,9.760761E0,2.5108767E0,3.1094205E0,5.072454E0,3.127602E0,1.9448518E0],"tree_param":{"num_deleted":"0","num_feature":"12","num_nodes":"13","size_leaf_vector":"1"}},{"base_weights":[3.3759475E-2,-3.684398E-1,6.7095804E-1,-4.9558532E-1,3.8705286E-2,-6.836054E-2,4.3970093E-2,-3.452057E-2,3.544912E-2,-3.4690995E-2,2.01343E-2,-1.2893639E-2,3.4874868E-2],"categories":[],"categories_nodes":[],"categories_segments":[],"categories_sizes":[],"default_left":[0,0,0,0,0,0,0,0,0,0,0,0,0],"id":61,"left_children":[1,3,5,7,-1,9,-1,-1,11,-1,-1,-1,-1],"loss_changes":[8.799515E0,3.4493146E0,2.1047168E0,2.0522566E0,0E0,1.4124482E0,0E0,0E0,1.3861718E0,0E0,0E0,0E0,0E0],"parents":[2147483647,0,0,1,1,2,2,3,3,5,5,8,8],"right_children":[2,4,6,8,-1,10,-1,-1,12,-1,-1,-1,-1],"split_conditions":[5.002754E-1,1.2229052E0,-1.02454E0,1.0723515E0,3.8705286E-2,-2.0605664E-1,4.3970093E-2,-3.452057E-2,1.4750172E0,-3.4690995E-2,2.01343E-2,-1.2893639E-2,3.4874868E-2],"split_indices":[10,4,0,2,0,11,0,0,5,0,0,0,0],"split_type":[0,0,0,0,0,0,0,0,0,0,0,0,0],"sum_hessian":[3.2370846E1,2.0103384E1,1.226746E1,1.8599794E1,1.5035906E0,2.845818E0,9.421641E0,1.3387909E1,5.211886E0,1.0193647E0,1.8264533E0,4.0347667E0,1.1771193E0],"tree_param":{"num_deleted":"0","num_feature":"12","num_nodes":"13","size_leaf_vector":"1"}},{"base_weights":[-1.204295E-2,-3.680507E-1,5.346007E-1,-7.052107E-2,-4.5098856E-2,-1.3615166E-2,7.8694344E-1,-4.3068446E-2,2.4305314E-1,4.6310835E-2,-1.7591625E-3,-2.3602668E-2,3.617837E-2],"categories":[],"categories_nodes":[],"categories_segments":[],"categories_sizes":[],"default_left":[0,0,0,0,0,0,0,0,0,0,0,0,0],"id":62,"left_children":[1,3,5,7,-1,-1,9,-1,11,-1,-1,-1,-1],"loss_changes":[6.5310135E0,3.161798E0,2.9111788E0,3.711697E0,0E0,0E0,1.217289E0,0E0,4.084599E0,0E0,0E0,0E0,0E0],"parents":[2147483647,0,0,1,1,2,2,3,3,6,6,8,8],"right_children":[2,4,6,8,-1,-1,10,-1,12,-1,-1,-1,-1],"split_conditions":[5.002754E-1,-1.7553861E-1,-2.0605664E-1,-4.9392942E-1,-4.5098856E-2,-1.3615166E-2,1.8188496E0,-4.3068446E-2,5.5605054E-1,4.6310835E-2,-1.7591625E-3,-2.3602668E-2,3.617837E-2],"split_indices":[10,9,11,10,0,0,9,0,1,0,0,0,0],"split_type":[0,0,0,0,0,0,0,0,0,0,0,0,0],"sum_hessian":[3.1548553E1,1.9303587E1,1.22449665E1,1.3122933E1,6.180653E0,2.8982556E0,9.346711E0,3.2299416E0,9.892992E0,7.88443E0,1.4622812E0,3.9830225E0,5.9099693E0],"tree_param":{"num_deleted":"0","num_feature":"12","num_nodes":"13","size_leaf_vector":"1"}},{"base_weights":[-1.7598275E-2,-4.190192E-1,3.441882E-1,-5.506948E-1,3.0409977E-2,-2.0318872E-1,6.2214094E-1,-3.367083E-2,1.1051309E-2,7.875513E-2,-4.3025985E-2,-5.7028397E-3,3.9339997E-2,-1.6457185E-2,3.6593165E-2],"categories":[],"categories_nodes":[],"categories_segments":[],"categories_sizes":[],"default_left":[0,0,0,0,0,0,0,0,0,0,0,0,0,0,0],"id":63,"left_children":[1,3,5,7,-1,9,11,-1,-1,13,-1,-1,-1,-1,-1],"loss_changes":[4.6806507E0,2.3987417E0,2.7095785E0,1.4794087E0,0E0,1.2671796E0,1.4845877E0,0E0,0E0,1.6915151E0,0E0,0E0,0E0,0E0,0E0],"parents":[2147483647,0,0,1,1,2,2,3,3,5,5,6,6,9,9],"right_children":[2,4,6,8,-1,10,12,-1,-1,14,-1,-1,-1,-1,-1],"split_conditions":[-2.3470178E-1,1.2229052E0,5.5605054E-1,1.6697127E0,3.0409977E-2,1.210474E0,-2.0605664E-1,-3.367083E-2,1.1051309E-2,1.4750172E0,-4.3025985E-2,-5.7028397E-3,3.9339997E-2,-1.6457185E-2,3.6593165E-2],"split_indices":[3,4,1,6,0,0,11,0,0,5,0,0,0,0,0],"split_type":[0,0,0,0,0,0,0,0,0,0,0,0,0,0,0],"sum_hessian":[3.0236458E1,1.4258128E1,1.597833E1,1.3049283E1,1.2088453E0,5.471734E0,1.0506596E1,1.1368765E1,1.6805182E0,4.4452553E0,1.026479E0,1.9765708E0,8.530025E0,3.0416358E0,1.4036194E0],"tree_param":{"num_deleted":"0","num_feature":"12","num_nodes":"15","size_leaf_vector":"1"}},{"base_weights":[-1.5817601E-3,-3.7000278E-1,6.3054454E-1,-6.514793E-1,2.0220977E-1,-9.546359E-3,4.258507E-2,-4.560351E-2,-2.0955314E-1,4.5438597E-1,-3.3759076E-2,-2.4531484E-2,1.4219674E-2,-9.27706E-3,3.3740092E-2],"categories":[],"categories_nodes":[],"categories_segments":[],"categories_sizes":[],"default_left":[0,0,0,0,0,0,0,0,0,0,0,0,0,0,0],"id":64,"left_children":[1,3,5,7,9,-1,-1,-1,11,13,-1,-1,-1,-1,-1],"loss_changes":[7.5125704E0,3.4138095E0,2.3207254E0,1.4091024E0,1.9622233E0,0E0,0E0,0E0,1.0353987E0,1.0292389E0,0E0,0E0,0E0,0E0,0E0],"parents":[2147483647,0,0,1,1,2,2,3,3,4,4,8,8,9,9],"right_children":[2,4,6,8,10,-1,-1,-1,12,14,-1,-1,-1,-1,-1],"split_conditions":[5.002754E-1,8.1877536E-1,-2.0605664E-1,1.6352868E-1,1.8436073E0,-9.546359E-3,4.258507E-2,-4.560351E-2,1.4750172E0,5.5605054E-1,-3.3759076E-2,-2.4531484E-2,1.4219674E-2,-9.27706E-3,3.3740092E-2],"split_indices":[10,11,11,3,11,0,0,0,5,1,0,0,0,0,0],"split_type":[0,0,0,0,0,0,0,0,0,0,0,0,0,0,0],"sum_hessian":[3.025643E1,1.9377403E1,1.0879026E1,1.2895476E1,6.4819283E0,2.3365955E0,8.542431E0,7.442815E0,5.452661E0,5.409321E0,1.0726075E0,3.479432E0,1.9732288E0,1.4263785E0,3.982942E0],"tree_param":{"num_deleted":"0","num_feature":"12","num_nodes":"15","size_leaf_vector":"1"}},{"base_weights":[-9.283269E-3,-4.5738474E-2,1.8908557E-1,-2.854404E-1,4.2028216E-1,-3.6410686E-2,3.1039348E-1,2.351731E-2,6.274365E-1,3.6308344E-2,-2.9156044E-2,4.8988834E-2,-3.1794492E-2,-1.1312851E-2,4.7772676E-2],"categories":[],"categories_nodes":[],"categories_segments":[],"categories_sizes":[],"default_left":[0,0,0,0,0,0,0,0,0,0,0,0,0,0,0],"id":65,"left_children":[1,-1,3,5,7,-1,9,11,13,-1,-1,-1,-1,-1,-1],"loss_changes":[5.788809E0,0E0,3.0245352E0,2.6713486E0,1.4816539E0,0E0,2.151886E0,5.2160788E0,3.5547419E0,0E0,0E0,0E0,0E0,0E0,0E0],"parents":[2147483647,0,0,2,2,3,3,4,4,6,6,7,7,8,8],"right_children":[2,-1,4,6,8,-1,10,12,14,-1,-1,-1,-1,-1,-1],"split_conditions":[-4.9392942E-1,-4.5738474E-2,2.8862461E-2,-1.6833004E-1,5.5605054E-1,-3.6410686E-2,1.3250343E0,-4.3381703E-1,-3.342594E-1,3.6308344E-2,-2.9156044E-2,4.8988834E-2,-3.1794492E-2,-1.1312851E-2,4.7772676E-2],"split_indices":[10,0,2,3,1,0,3,3,3,0,0,0,0,0,0],"split_type":[0,0,0,0,0,0,0,0,0,0,0,0,0,0,0],"sum_hessian":[3.0265072E1,4.789801E0,2.547527E1,8.268904E0,1.7206366E1,4.6162915E0,3.6526122E0,6.2840285E0,1.0922338E1,2.6205156E0,1.0320966E0,2.3664312E0,3.9175973E0,3.1179144E0,7.8044233E0],"tree_param":{"num_deleted":"0","num_feature":"12","num_nodes":"15","size_leaf_vector":"1"}},{"base_weights":[1.3199367E-2,-4.4901032E-2,2.0449899E-1,-2.2117525E-1,5.211949E-1,-5.5701363E-1,1.2782912E-2,3.187276E-2,-2.3815544E-2,-4.7257148E-2,2.9434215E-3],"categories":[],"categories_nodes":[],"categories_segments":[],"categories_sizes":[],"default_left":[0,0,0,0,0,0,0,0,0,0,0],"id":66,"left_children":[1,-1,3,5,7,9,-1,-1,-1,-1,-1],"loss_changes":[5.497747E0,0E0,3.6217184E0,2.0317457E0,2.0677967E0,1.7856138E0,0E0,0E0,0E0,0E0,0E0],"parents":[2147483647,0,0,2,2,3,3,4,4,5,5],"right_children":[2,-1,4,6,8,10,-1,-1,-1,-1,-1],"split_conditions":[-4.9392942E-1,-4.4901032E-2,-2.3470178E-1,8.1877536E-1,1.4339755E0,3.5849303E-1,1.2782912E-2,3.187276E-2,-2.3815544E-2,-4.7257148E-2,2.9434215E-3],"split_indices":[10,0,3,11,0,6,0,0,0,0,0],"split_type":[0,0,0,0,0,0,0,0,0,0,0],"sum_hessian":[2.9485449E1,4.4750533E0,2.5010395E1,1.0798131E1,1.4212263E1,6.2371182E0,4.5610127E0,1.3051992E1,1.1602714E0,3.4980364E0,2.7390819E0],"tree_param":{"num_deleted":"0","num_feature":"12","num_nodes":"11","size_leaf_vector":"1"}},{"base_weights":[1.1982315E-2,-3.5992545E-1,6.0432523E-1,-3.0795773E-2,1.0805911E-1,3.8535267E-2,-7.3639266E-3,-1.1344604E-1,3.5697624E-2,-2.0704487E-2,3.0091858E-2],"categories":[],"categories_nodes":[],"categories_segments":[],"categories_sizes":[],"default_left":[0,0,0,0,0,0,0,0,0,0,0],"id":67,"left_children":[1,3,5,-1,7,-1,-1,9,-1,-1,-1],"loss_changes":[6.7760754E0,2.3326156E0,1.5961251E0,0E0,1.0928005E0,0E0,0E0,1.6219875E0,0E0,0E0,0E0],"parents":[2147483647,0,0,1,1,2,2,4,4,7,7],"right_children":[2,4,6,-1,8,-1,-1,10,-1,-1,-1],"split_conditions":[5.002754E-1,1.0723515E0,1.7015326E0,-3.0795773E-2,1.6697127E0,3.8535267E-2,-7.3639266E-3,1.4750172E0,3.5697624E-2,-2.0704487E-2,3.0091858E-2],"split_indices":[10,2,9,0,6,0,0,5,0,0,0],"split_type":[0,0,0,0,0,0,0,0,0,0,0],"sum_hessian":[2.877147E1,1.7915459E1,1.085601E1,1.1376404E1,6.5390563E0,8.867603E0,1.9884068E0,5.3836427E0,1.1554134E0,4.0869308E0,1.2967122E0],"tree_param":{"num_deleted":"0","num_feature":"12","num_nodes":"11","size_leaf_vector":"1"}},{"base_weights":[-5.5274395E-3,-5.1726335E-1,3.2014164E-1,-4.3798756E-2,-1.2759834E-2,-3.8402352E-2,4.293867E-1,1.5848562E-2,-3.2928206E-2,-3.027079E-2,5.323373E-1,4.9761576E-3,3.5396274E-2],"categories":[],"categories_nodes":[],"categories_segments":[],"categories_sizes":[],"default_left":[0,0,0,0,0,0,0,0,0,0,0,0,0],"id":68,"left_children":[1,3,5,-1,7,-1,9,-1,-1,-1,11,-1,-1],"loss_changes":[5.021611E0,2.108737E0,2.5199914E0,0E0,1.4613985E0,0E0,2.1742985E0,0E0,0E0,0E0,1.1715951E0,0E0,0E0],"parents":[2147483647,0,0,1,1,2,2,4,4,6,6,10,10],"right_children":[2,4,6,-1,8,-1,10,-1,-1,-1,12,-1,-1],"split_conditions":[2.8862461E-2,-2.6788765E-1,-1.4505059E0,-4.3798756E-2,1.3250343E0,-3.8402352E-2,-1.532544E0,1.5848562E-2,-3.2928206E-2,-3.027079E-2,5.5605054E-1,4.9761576E-3,3.5396274E-2],"split_indices":[2,3,4,0,3,0,7,0,0,0,1,0,0],"split_type":[0,0,0,0,0,0,0,0,0,0,0,0,0],"sum_hessian":[2.8137844E1,1.0714088E1,1.7423756E1,5.831482E0,4.882607E0,1.0394374E0,1.638432E1,3.5693648E0,1.3132423E0,1.0409205E0,1.5343398E1,4.880373E0,1.0463025E1],"tree_param":{"num_deleted":"0","num_feature":"12","num_nodes":"13","size_leaf_vector":"1"}},{"base_weights":[1.6895663E-2,-3.1598642E-1,4.9398494E-1,-5.897016E-1,2.629531E-1,3.4272414E-2,-1.1869884E-2,-2.3680888E-1,-4.6886425E-2,-2.4566334E-2,2.578548E-2,-3.0154562E-2,2.268201E-2],"categories":[],"categories_nodes":[],"categories_segments":[],"categories_sizes":[],"default_left":[0,0,0,0,0,0,0,0,0,0,0,0,0],"id":69,"left_children":[1,3,5,7,9,-1,-1,11,-1,-1,-1,-1,-1],"loss_changes":[4.600033E0,2.86351E0,1.8277357E0,1.2411046E0,1.4312768E0,0E0,0E0,2.1079257E0,0E0,0E0,0E0,0E0,0E0],"parents":[2147483647,0,0,1,1,2,2,3,3,4,4,7,7],"right_children":[2,4,6,8,10,-1,-1,12,-1,-1,-1,-1,-1],"split_conditions":[5.002754E-1,1.0723515E0,1.6428741E0,-5.274895E-1,-9.245163E-1,3.4272414E-2,-1.1869884E-2,1.4750172E0,-4.6886425E-2,-2.4566334E-2,2.578548E-2,-3.0154562E-2,2.268201E-2],"split_indices":[10,2,9,9,7,0,0,5,0,0,0,0,0],"split_type":[0,0,0,0,0,0,0,0,0,0,0,0,0],"sum_hessian":[2.698196E1,1.6091812E1,1.0890148E1,1.0913473E1,5.1783395E0,8.680539E0,2.2096095E0,6.253239E0,4.6602335E0,1.0628105E0,4.1155286E0,4.1684203E0,2.0848186E0],"tree_param":{"num_deleted":"0","num_feature":"12","num_nodes":"13","size_leaf_vector":"1"}},{"base_weights":[2.1972023E-3,-2.9988E-1,5.1196736E-1,-5.734094E-1,1.1708458E-2,-1.6089793E-1,3.6721483E-2,-3.7489507E-2,-2.5696266E-3,-4.9231276E-2,3.1621452E-2],"categories":[],"categories_nodes":[],"categories_segments":[],"categories_sizes":[],"default_left":[0,0,0,0,0,0,0,0,0,0,0],"id":70,"left_children":[1,3,5,7,-1,9,-1,-1,-1,-1,-1],"loss_changes":[4.50002E0,2.815393E0,1.7455387E0,1.1057034E0,0E0,2.924029E0,0E0,0E0,0E0,0E0,0E0],"parents":[2147483647,0,0,1,1,2,2,3,3,5,5],"right_children":[2,4,6,8,-1,10,-1,-1,-1,-1,-1],"split_conditions":[5.002754E-1,1.0723515E0,-6.99304E-1,8.1877536E-1,1.1708458E-2,1.0723515E0,3.6721483E-2,-3.7489507E-2,-2.5696266E-3,-4.9231276E-2,3.1621452E-2],"split_indices":[10,2,3,11,0,2,0,0,0,0,0],"split_type":[0,0,0,0,0,0,0,0,0,0,0],"sum_hessian":[2.7225813E1,1.7353998E1,9.871816E0,1.1427405E1,5.926592E0,2.5216148E0,7.350201E0,8.215271E0,3.2121348E0,1.1188035E0,1.4028113E0],"tree_param":{"num_deleted":"0","num_feature":"12","num_nodes":"11","size_leaf_vector":"1"}},{"base_weights":[1.7994357E-2,-3.0417135E-1,5.464253E-1,-5.336029E-1,3.7111086E-1,-7.419073E-3,3.698456E-2,-3.678679E-2,1.13610506E-1,-2.8720996E-1,4.6564203E-2,2.4125196E-2,-2.2229956E-2,1.657273E-2,-3.746018E-2],"categories":[],"categories_nodes":[],"categories_segments":[],"categories_sizes":[],"default_left":[0,0,0,0,0,0,0,0,0,0,0,0,0,0,0],"id":71,"left_children":[1,3,5,7,9,-1,-1,-1,11,13,-1,-1,-1,-1,-1],"loss_changes":[4.8000894E0,2.9174275E0,1.5421457E0,1.8511829E0,2.1264625E0,0E0,0E0,0E0,1.0550349E0,1.1291555E0,0E0,0E0,0E0,0E0,0E0],"parents":[2147483647,0,0,1,1,2,2,3,3,4,4,8,8,9,9],"right_children":[2,4,6,8,10,-1,-1,-1,12,14,-1,-1,-1,-1,-1],"split_conditions":[5.002754E-1,3.2578737E-1,-6.99304E-1,1.4750172E0,5.5605054E-1,-7.419073E-3,3.698456E-2,-3.678679E-2,-6.4480644E-1,-7.6212335E-1,4.6564203E-2,2.4125196E-2,-2.2229956E-2,1.657273E-2,-3.746018E-2],"split_indices":[10,4,3,5,1,0,0,0,9,9,0,0,0,0,0],"split_type":[0,0,0,0,0,0,0,0,0,0,0,0,0,0,0],"sum_hessian":[2.621933E1,1.655234E1,9.66699E0,1.2511338E1,4.041001E0,2.15431E0,7.51268E0,9.429585E0,3.0817528E0,2.0817695E0,1.9592314E0,1.9371847E0,1.1445682E0,1.0107759E0,1.0709935E0],"tree_param":{"num_deleted":"0","num_feature":"12","num_nodes":"15","size_leaf_vector":"1"}},{"base_weights":[-3.7553996E-2,-4.0762857E-1,6.091269E-1,-5.6512815E-1,1.9750148E-2,4.1173395E-2,-8.124528E-3,-4.0192664E-2,1.0665291E-1,-1.8562874E-2,2.6414594E-2],"categories":[],"categories_nodes":[],"categories_segments":[],"categories_sizes":[],"default_left":[0,0,0,0,0,0,0,0,0,0,0],"id":72,"left_children":[1,3,5,7,-1,-1,-1,-1,9,-1,-1],"loss_changes":[6.5573673E0,2.4185662E0,1.7870724E0,2.479897E0,0E0,0E0,0E0,0E0,1.1627681E0,0E0,0E0],"parents":[2147483647,0,0,1,1,2,2,3,3,8,8],"right_children":[2,4,6,8,-1,-1,-1,-1,10,-1,-1],"split_conditions":[5.002754E-1,1.6697127E0,1.6428741E0,1.4750172E0,1.9750148E-2,4.1173395E-2,-8.124528E-3,-4.0192664E-2,-3.021951E-1,-1.8562874E-2,2.6414594E-2],"split_indices":[10,6,9,5,0,0,0,0,4,0,0],"split_type":[0,0,0,0,0,0,0,0,0,0,0],"sum_hessian":[2.5362467E1,1.6366251E1,8.996216E0,1.3928903E1,2.4373484E0,6.987908E0,2.0083082E0,1.0131837E1,3.7970655E0,1.8357773E0,1.9612882E0],"tree_param":{"num_deleted":"0","num_feature":"12","num_nodes":"11","size_leaf_vector":"1"}},{"base_weights":[-2.103708E-2,-3.489743E-1,5.235868E-1,-5.1654476E-1,2.1576319E-2,3.5439175E-2,-7.47645E-3,1.9356263E-1,-3.573089E-2,-1.8115139E-2,3.924275E-2],"categories":[],"categories_nodes":[],"categories_segments":[],"categories_sizes":[],"default_left":[0,0,0,0,0,0,0,0,0,0,0],"id":73,"left_children":[1,3,5,7,-1,-1,-1,9,-1,-1,-1],"loss_changes":[4.8726373E0,2.445012E0,1.3860962E0,2.1696694E0,0E0,0E0,0E0,1.5782664E0,0E0,0E0,0E0],"parents":[2147483647,0,0,1,1,2,2,3,3,7,7],"right_children":[2,4,6,8,-1,-1,-1,10,-1,-1,-1],"split_conditions":[5.002754E-1,1.6697127E0,1.6428741E0,-1.2313912E0,2.1576319E-2,3.5439175E-2,-7.47645E-3,-1.4073666E0,-3.573089E-2,-1.8115139E-2,3.924275E-2],"split_indices":[10,6,9,9,0,0,0,9,0,0,0],"split_type":[0,0,0,0,0,0,0,0,0,0,0],"sum_hessian":[2.5258986E1,1.5990051E1,9.268934E0,1.3442242E1,2.5478096E0,7.2274365E0,2.041498E0,2.9367025E0,1.0505539E1,1.7133121E0,1.2233903E0],"tree_param":{"num_deleted":"0","num_feature":"12","num_nodes":"11","size_leaf_vector":"1"}},{"base_weights":[2.4461164E-3,-3.421434E-1,2.817615E-2,-5.352338E-1,3.4964863E-2,-7.695175E-1,1.01672105E-1,-4.617319E-2,-2.7356788E-3,-2.231295E-2,2.9487176E-2],"categories":[],"categories_nodes":[],"categories_segments":[],"categories_sizes":[],"default_left":[0,0,0,0,0,0,0,0,0,0,0],"id":74,"left_children":[1,3,-1,5,-1,7,9,-1,-1,-1,-1],"loss_changes":[5.015927E0,3.607211E0,0E0,2.1864796E0,0E0,1.0989532E0,1.5155098E0,0E0,0E0,0E0,0E0],"parents":[2147483647,0,0,1,1,3,3,5,5,6,6],"right_children":[2,4,-1,6,-1,8,10,-1,-1,-1,-1],"split_conditions":[5.002754E-1,1.6697127E0,2.817615E-2,1.4750172E0,3.4964863E-2,3.2578737E-1,-3.021951E-1,-4.617319E-2,-2.7356788E-3,-2.231295E-2,2.9487176E-2],"split_indices":[10,6,0,5,0,4,4,0,0,0,0],"split_type":[0,0,0,0,0,0,0,0,0,0,0],"sum_hessian":[2.3946163E1,1.5076823E1,8.86934E0,1.3128729E1,1.9480942E0,9.445882E0,3.6828477E0,7.5318465E0,1.914035E0,1.7753866E0,1.907461E0],"tree_param":{"num_deleted":"0","num_feature":"12","num_nodes":"11","size_leaf_vector":"1"}},{"base_weights":[-7.1471825E-2,-5.4978395E-1,2.2869048E-1,-4.0203985E-2,7.7176574E-3,-3.0233128E-2,3.339763E-1,-1.012075E-1,5.5252945E-1,4.472557E-2,-3.1801887E-2,-1.2106969E-2,4.540503E-2],"categories":[],"categories_nodes":[],"categories_segments":[],"categories_sizes":[],"default_left":[0,0,0,0,0,0,0,0,0,0,0,0,0],"id":75,"left_children":[1,3,5,-1,-1,-1,7,9,11,-1,-1,-1,-1],"loss_changes":[3.8744905E0,1.9794338E0,1.67153E0,0E0,0E0,0E0,1.5315387E0,3.7812133E0,3.1819108E0,0E0,0E0,0E0,0E0],"parents":[2147483647,0,0,1,1,2,2,6,6,7,7,8,8],"right_children":[2,4,6,-1,-1,-1,8,10,12,-1,-1,-1,-1],"split_conditions":[2.8862461E-2,8.1877536E-1,-4.9392942E-1,-4.0203985E-2,7.7176574E-3,-3.0233128E-2,5.5605054E-1,-4.3381703E-1,-3.342594E-1,4.472557E-2,-3.1801887E-2,-1.2106969E-2,4.540503E-2],"split_indices":[2,11,10,0,0,0,1,3,3,0,0,0,0],"split_type":[0,0,0,0,0,0,0,0,0,0,0,0,0],"sum_hessian":[2.5110796E1,9.3615055E0,1.574929E1,6.773391E0,2.5881145E0,1.234554E0,1.4514736E1,5.031974E0,9.482763E0,1.5233555E0,3.508618E0,3.0300014E0,6.452761E0],"tree_param":{"num_deleted":"0","num_feature":"12","num_nodes":"13","size_leaf_vector":"1"}},{"base_weights":[2.7800316E-2,-2.568053E-1,4.6830285E-1,-2.5881985E-2,2.6872325E-1,-1.0822575E-2,3.9312568E-2,2.9489195E-2,-1.3600901E-2],"categories":[],"categories_nodes":[],"categories_segments":[],"categories_sizes":[],"default_left":[0,0,0,0,0,0,0,0,0],"id":76,"left_children":[1,3,5,-1,7,-1,-1,-1,-1],"loss_changes":[3.240822E0,2.3003829E0,2.3743184E0,0E0,1.1826786E0,0E0,0E0,0E0,0E0],"parents":[2147483647,0,0,1,1,2,2,4,4],"right_children":[2,4,6,-1,8,-1,-1,-1,-1],"split_conditions":[5.002754E-1,1.4750172E0,-2.0605664E-1,-2.5881985E-2,-5.274895E-1,-1.0822575E-2,3.9312568E-2,2.9489195E-2,-1.3600901E-2],"split_indices":[10,5,11,0,9,0,0,0,0],"split_type":[0,0,0,0,0,0,0,0,0],"sum_hessian":[2.3890898E1,1.47670355E1,9.123861E0,9.878883E0,4.8881526E0,2.994322E0,6.1295395E0,3.010185E0,1.8779678E0],"tree_param":{"num_deleted":"0","num_feature":"12","num_nodes":"9","size_leaf_vector":"1"}},{"base_weights":[3.9958996E-3,-4.2960855E-1,2.6306415E-1,-3.9467674E-2,2.6723123E-3,-2.2634366E-1,4.9316868E-1,-2.8047452E-2,1.1567271E-2,-7.257264E-3,3.332317E-2],"categories":[],"categories_nodes":[],"categories_segments":[],"categories_sizes":[],"default_left":[0,0,0,0,0,0,0,0,0,0,0],"id":77,"left_children":[1,3,5,-1,-1,7,9,-1,-1,-1,-1],"loss_changes":[2.9210806E0,1.7328976E0,1.9436958E0,0E0,0E0,1.0315182E0,1.3555794E0,0E0,0E0,0E0,0E0],"parents":[2147483647,0,0,1,1,2,2,5,5,6,6],"right_children":[2,4,6,-1,-1,8,10,-1,-1,-1,-1],"split_conditions":[2.8862461E-2,3.5849303E-1,5.5605054E-1,-3.9467674E-2,2.6723123E-3,9.915253E-1,-2.0605664E-1,-2.8047452E-2,1.1567271E-2,-7.257264E-3,3.332317E-2],"split_indices":[2,6,1,0,0,8,11,0,0,0,0],"split_type":[0,0,0,0,0,0,0,0,0,0,0],"sum_hessian":[2.3997663E1,8.729219E0,1.5268443E1,4.6397653E0,4.0894537E0,4.8881707E0,1.0380273E1,2.6934462E0,2.1947243E0,2.251079E0,8.129193E0],"tree_param":{"num_deleted":"0","num_feature":"12","num_nodes":"11","size_leaf_vector":"1"}},{"base_weights":[8.635642E-2,-3.3559892E-1,3.2717478E-1,-3.383371E-2,9.621915E-3,-9.603662E-2,5.4636914E-1,-2.3419067E-2,1.7406216E-2,-2.4370938E-3,3.6356952E-2],"categories":[],"categories_nodes":[],"categories_segments":[],"categories_sizes":[],"default_left":[0,0,0,0,0,0,0,0,0,0,0],"id":78,"left_children":[1,3,5,-1,-1,7,9,-1,-1,-1,-1],"loss_changes":[2.5935738E0,1.8186637E0,1.5430342E0,0E0,0E0,1.2104235E0,1.1902938E0,0E0,0E0,0E0,0E0],"parents":[2147483647,0,0,1,1,2,2,5,5,6,6],"right_children":[2,4,6,-1,-1,8,10,-1,-1,-1,-1],"split_conditions":[2.8862461E-2,3.5849303E-1,5.5605054E-1,-3.383371E-2,9.621915E-3,9.915253E-1,-2.0605664E-1,-2.3419067E-2,1.7406216E-2,-2.4370938E-3,3.6356952E-2],"split_indices":[2,6,1,0,0,8,11,0,0,0,0],"split_type":[0,0,0,0,0,0,0,0,0,0,0],"sum_hessian":[2.3443087E1,8.375024E0,1.5068063E1,4.9173007E0,3.457723E0,5.3330655E0,9.734998E0,2.8714054E0,2.4616601E0,2.43829E0,7.2967076E0],"tree_param":{"num_deleted":"0","num_feature":"12","num_nodes":"11","size_leaf_vector":"1"}},{"base_weights":[-6.4537235E-2,-3.6145622E-1,3.9391783E-1,-4.1766282E-2,2.4208958E-1,4.489542E-2,4.5975912E-3,2.3212388E-2,-1.5873237E-2],"categories":[],"categories_nodes":[],"categories_segments":[],"categories_sizes":[],"default_left":[0,0,0,0,0,0,0,0,0],"id":79,"left_children":[1,3,5,-1,7,-1,-1,-1,-1],"loss_changes":[3.4571502E0,4.578268E0,1.4469746E0,0E0,1.0803123E0,0E0,0E0,0E0,0E0],"parents":[2147483647,0,0,1,1,2,2,4,4],"right_children":[2,4,6,-1,8,-1,-1,-1,-1],"split_conditions":[1.0723515E0,1.9671455E-1,-5.3337467E-1,-4.1766282E-2,8.193466E-1,4.489542E-2,4.5975912E-3,2.3212388E-2,-1.5873237E-2],"split_indices":[2,3,3,0,0,0,0,0,